\data\
ngram 1=1395
ngram 2=23331
ngram 3=114074

\1-grams:
-4.3544636	<unk>	0
0	<s>	-2.75396
-1.5539123	</s>	0
-2.2973046	ヵ	-1.2085801
-2.585031	ワ	-0.82236665
-2.4301147	タ	-1.2701062
-2.2451935	ァ	-1.2548125
-2.52495	ォ	-0.8744095
-2.293629	ミ	-1.3228953
-2.7083976	ガ	-0.56655884
-2.654779	ホ	-1.1655718
-2.9586768	ズ	-0.46444872
-2.4351554	コ	-1.1355664
-2.544068	ゥ	-1.0071089
-2.6302638	ダ	-1.2737002
-2.4057536	サ	-1.2411762
-2.2722063	ェ	-1.0348749
-2.461275	ﾖ	-0.9494767
-2.3963792	シ	-1.1686887
-2.1039188	ノ	-1.0021671
-2.2259822	マ	-1.252889
-3.6151178	長	-0.1504564
-2.8813612	内	-0.78013504
-1.872861	り	-1.2326103
-1.8618885	さ	-1.4657115
-2.391767	ィ	-1.2703408
-2.52495	ヮ	-1.0829018
-2.3481526	ル	-0.929283
-2.391767	ナ	-1.2088892
-2.59225	ヤ	-0.83180285
-2.3123257	ュ	-1.3166661
-2.450638	キ	-1.2451898
-2.4833646	チ	-1.0799677
-2.5312297	ロ	-0.5872043
-2.544068	ン	-0.7114159
-3.1209428	ベ	-0.40647107
-2.5995913	ム	-0.74085486
-2.4402552	ラ	-0.988968
-2.585031	モ	-1.1135601
-2.3161635	リ	-1.2931657
-2.4666932	ッ	-0.8801639
-2.461275	ハ	-1.2471848
-3.6151178	天	-0.15149237
-2.828105	海	-0.31988993
-1.9403499	こ	-1.2147821
-3.0126736	ろ	-0.30954167
-2.4105177	ケ	-0.6391839
-3.483705	雪	-0.15018302
-3.4304159	白	-0.14219472
-1.8578444	か	-1.2283001
-2.6070588	ん	-0.47645763
-2.8539174	菜	-0.3233348
-2.352322	レ	-1.1206884
-2.489067	テ	-0.89478254
-2.3440228	ジ	-0.7980784
-2.7379127	ゴ	-0.573596
-2.7180147	ギ	-0.6551013
-2.455924	ス	-0.8663342
-2.3826866	匕	-1.2987685
-2.6070588	ニ	-0.81670713
-2.3963792	ト	-1.0433106
-2.6897793	デ	-0.46905017
-2.7180147	グ	-0.5414165
-2.52495	ク	-0.8770479
-2.489067	セ	-0.9508427
-2.654779	ブ	-0.52922374
-3.2017996	高	-0.2546107
-2.1539907	野	-1.1724739
-1.8168983	あ	-1.6816885
-2.0720146	す	-0.9494405
-3.232483	ヅ	-0.47766748
-1.9974943	田	-1.4262754
-2.2618785	山	-1.0252663
-1.9419755	よ	-1.2229289
-1.930722	し	-1.1949012
-2.3826866	美	-0.3980351
-2.828105	倉	-0.58462155
-2.8957624	橋	-0.7047607
-2.3694124	お	-0.69322586
-1.9151353	い	-1.1418626
-2.7695808	ゲ	-0.40093452
-2.6382828	ソ	-1.076069
-2.6897793	バ	-0.6087714
-2.5187597	島	-1.0378529
-1.8013074	み	-1.5278307
-2.993919	ず	-0.42267895
-1.951859	き	-1.0308125
-3.6151178	早	-0.16358024
-2.1257398	ふ	-1.133061
-3.0126736	ザ	-0.39983508
-2.7587662	ド	-0.4298762
-3.173142	小	-0.17413282
-4.043125	菅	-0.23936616
-1.8485518	ゆ	-1.4643145
-2.1513453	子	-0.8080033
-2.6464527	ネ	-0.680836
-3.483705	福	-0.15714909
-2.993919	永	-0.62292683
-3.6995485	今	-0.14219472
-2.3161635	井	-1.0876621
-3.3401766	畑	-0.4893392
-1.9371169	た	-1.1797888
-2.0698228	け	-1.1030676
-1.8742523	ひ	-1.492934
-2.8157523	樹	-0.40612268
-2.477736	村	-1.0501658
-1.8898578	の	-0.83496183
-3.6995485	岸	-0.28832737
-2.0590277	も	-1.020587
-1.930722	と	-1.1854029
-3.9430535	宇	-0.15559138
-3.173142	都	-0.24155241
-2.7379127	宮	-0.45460674
-2.0505805	え	-1.1795145
-3.6151178	杏	-0.26348743
-2.8539174	森	-0.4899822
-2.4948454	メ	-1.0026643
-2.828105	嶋	-0.5878309
-3.3012352	武	-0.22323343
-3.1209428	び	-0.32178065
-2.7278497	ビ	-0.8025527
-2.8408194	口	-0.939326
-3.8044536	阿	-0.13435073
-2.167466	く	-0.94040304
-2.9420733	松	-0.5761336
-2.0361822	る	-0.9103976
-3.3829567	金	-0.15488973
-2.335879	原	-1.1582615
-3.9430535	紫	-0.13435073
-3.9430535	苑	-0.13435073
-2.1899354	う	-0.7692177
-4.043125	増	-0.13435073
-4.2006297	飯	-0.13435076
-1.9275596	な	-1.1198615
-2.146102	や	-0.8414825
-3.8044536	兵	-0.13435076
-3.5444598	頭	-0.321703
-2.352322	木	-0.8220378
-3.0528033	ボ	-0.25421533
-4.2006297	渋	-0.13435073
-2.4301147	谷	-1.0426927
-1.9535283	は	-1.3091282
-2.1566527	つ	-0.91800386
-3.0528033	林	-0.6781274
-1.9619726	ち	-1.2090509
-3.0126736	河	-0.17432693
-3.07435	中	-0.49236703
-2.3318636	じ	-0.8754521
-3.3401766	ヌ	-0.2565786
-3.9430535	船	-0.13435073
-4.043125	引	-0.22000416
-4.2006297	塩	-0.13435069
-2.803741	ゼ	-0.83051646
-3.3829567	桜	-0.18058981
-2.6382828	ね	-0.53016883
-2.7695808	藤	-0.6862132
-4.2006297	工	-0.13435073
-2.1729753	め	-0.9701813
-3.173142	ぐ	-0.35549664
-3.07435	大	-0.16205794
-2.5572977	一	-0.39887643
-2.59225	瀬	-0.3942996
-3.9430535	旭	-0.13435073
-3.2655	1	-0.56451744
-3.5444598	4	-0.7528315
-2.9759405	世	-0.44401434
-3.9430535	赤	-0.14941585
-3.0322752	羽	-0.31580552
-3.9430535	新	-0.14087746
-3.3829567	居	-0.32505193
-3.9430535	潮	-0.13435073
-3.1209428	也	-0.6583687
-2.8813612	上	-0.61907005
-1.8330699	ま	-1.3538179
-3.1462586	ど	-0.28908545
-2.8408194	平	-0.4429765
-2.7695808	尾	-0.73510295
-2.5506325	崎	-1.0283852
-3.5444598	市	-0.1616478
-2.2075849	川	-1.0931108
-3.0528033	元	-0.48907182
-2.9759405	久	-0.21566354
-3.3012352	保	-0.31418836
-2.4666932	そ	-1.0194049
-3.8044536	鶴	-0.13435073
-2.6382828	岡	-0.9705297
-3.3401766	ゾ	-0.3417056
-3.6151178	渡	-0.2920062
-2.8813612	部	-0.7225823
-3.1462586	ヲ	-0.5116954
-3.2655	友	-0.21261112
-3.3829567	岩	-0.3000832
-3.6151178	手	-0.15559138
-2.9759405	塚	-0.7583857
-3.1209428	ぶ	-0.27377346
-4.043125	結	-0.13435069
-2.585031	城	-0.6324897
-2.9586768	三	-0.22095318
-4.043125	宅	-0.1464779
-2.4833646	沢	-1.0848031
-4.2006297	境	-0.13435073
-3.3829567	南	-0.18622313
-3.8044536	雲	-0.13435076
-4.2006297	鳴	-0.13435073
-3.5444598	知	-0.21088974
-2.7695808	花	-0.25011954
-3.483705	士	-0.15959121
-2.8813612	吉	-0.38585976
-3.173142	づ	-0.48689973
-3.232483	浦	-0.44413576
-3.4304159	鈴	-0.1860629
-3.097022	石	-0.49373353
-3.232483	加	-0.19923331
-2.8539174	賀	-0.58533657
-2.9260814	代	-0.3267539
-3.483705	安	-0.13435073
-3.9430535	斎	-0.15018302
-3.8044536	阪	-0.13435073
-2.477736	月	-0.48015007
-2.2291255	せ	-0.9835651
-2.1487157	れ	-1.1971841
-3.5444598	京	-0.13435073
-3.9430535	学	-0.13435076
-4.2006297	再	-0.13435073
-2.828105	生	-0.3350241
-4.2006297	医	-0.13435073
-3.5444598	科	-0.19396074
-3.8044536	研	-0.13435073
-4.2006297	究	-0.13435073
-3.5444598	所	-0.16226766
-3.173142	ペ	-0.29691386
-3.8044536	時	-0.13435073
-4.2006297	磯	-0.13435073
-3.6151178	進	-0.25277096
-4.043125	椎	-0.13435073
-3.0126736	名	-0.27660337
-4.043125	相	-0.13435073
-2.4666932	本	-1.0721561
-4.043125	亀	-0.13435073
-2.9586768	水	-0.24984029
-3.3012352	東	-0.35516644
-4.043125	荒	-0.13435076
-3.2655	根	-0.4911088
-3.6151178	熊	-0.24061443
-3.6995485	合	-0.28589118
-2.8957624	津	-0.5015227
-3.3829567	玉	-0.22558948
-3.9430535	置	-0.28088954
-3.5444598	堀	-0.35920578
-3.2655	神	-0.16890503
-3.6151178	鹿	-0.13435073
-3.483705	秋	-0.16358024
-3.3401766	竹	-0.26179147
-2.3161635	て	-1.1233386
-4.043125	細	-0.13435073
-2.993919	和	-0.25819695
-3.6151178	仲	-0.15059665
-2.461275	ー	-0.64326185
-2.9759405	坂	-0.70220613
-3.2017996	越	-0.52014375
-4.2006297	霜	-0.13435073
-2.8957624	戸	-0.49397933
-2.4833646	乃	-0.49233705
-3.3012352	千	-0.15536283
-3.8044536	土	-0.13435073
-2.8408194	屋	-0.4797467
-3.8044536	柴	-0.15488973
-3.6995485	黒	-0.2707026
-3.4304159	柳	-0.3535111
-3.3829567	脇	-0.5427096
-2.803741	ピ	-0.57552207
-2.8157523	見	-0.65031284
-3.097022	西	-0.60075605
-3.6151178	北	-0.21412638
-4.043125	毛	-0.13435073
-3.07435	利	-0.27641964
-3.3012352	龍	-0.15423296
-3.9430535	入	-0.13435073
-2.6807613	江	-0.55600584
-3.6151178	姫	-0.15559138
-3.07435	ぎ	-0.30379656
-3.4304159	有	-0.19022247
-3.3829567	伊	-0.15559138
-4.043125	古	-0.14219472
-3.9430535	D	-0.13435076
-4.043125	J	-0.13435073
-3.6151178	滝	-0.2585365
-3.6995485	照	-0.1666144
-3.173142	愛	-0.21079245
-3.1462586	風	-0.15488973
-3.9430535	遊	-0.13435073
-2.3694124	む	-0.9992089
-3.3829567	清	-0.17840117
-3.8044536	ぢ	-0.13435073
-3.3829567	辺	-0.31631827
-2.3047502	わ	-0.65307945
-2.8813612	真	-0.20995283
-3.8044536	豊	-0.17035182
-2.339932	ら	-0.5628029
-3.3401766	関	-0.41320303
-3.9430535	犬	-0.13435073
-3.8044536	篠	-0.13435073
-3.6151178	綾	-0.17641509
-3.6995485	左	-0.34605658
-3.3401766	門	-0.19315302
-3.3012352	浜	-0.27534068
-3.6995485	砂	-0.18121077
-3.8044536	立	-0.1603238
-3.3829567	茂	-0.16593759
-3.9430535	依	-0.13435076
-3.9430535	駒	-0.13435073
-4.2006297	片	-0.13435073
-3.2655	那	-0.17506927
-3.3401766	須	-0.2521973
-4.043125	稲	-0.16358024
-3.9430535	笠	-0.17506927
-4.2006297	鵜	-0.13435073
-3.8044536	飼	-0.2616212
-3.4304159	出	-0.26431176
-3.0322752	穂	-0.3823558
-3.5444598	歌	-0.13435073
-2.7180147	香	-0.4881816
-3.9430535	菊	-0.13435073
-3.483705	池	-0.24587707
-3.07435	下	-0.6426861
-4.043125	分	-0.13435073
-4.043125	別	-0.13435076
-3.0528033	人	-0.63359714
-4.2006297	覧	-0.13435073
-4.2006297	榊	-0.13435076
-4.2006297	柘	-0.13435073
-3.9430535	植	-0.14602262
-3.9430535	伏	-0.13435076
-3.0322752	枝	-0.36144137
-4.043125	萩	-0.13435073
-3.6995485	悠	-0.17718598
-3.4304159	斗	-0.30924493
-4.043125	品	-0.13435073
-3.6995485	呂	-0.1464779
-3.1462586	二	-0.3315755
-2.4301147	ほ	-0.84512395
-4.043125	兼	-0.13435073
-3.1462586	貴	-0.2789717
-3.1462586	佐	-0.19396074
-3.9430535	末	-0.13435073
-3.8044536	徳	-0.1610679
-3.6995485	七	-0.13435073
-4.2006297	蛭	-0.13435073
-3.6151178	若	-0.13435076
-4.043125	施	-0.13435076
-4.2006297	及	-0.13435073
-2.7920532	げ	-0.48106778
-3.07435	矢	-0.19701798
-3.5444598	形	-0.24103732
-3.483705	広	-0.16984707
-2.57793	に	-0.7253049
-3.0528033	夏	-0.263509
-4.043125	横	-0.15559138
-4.043125	奥	-0.14359379
-3.232483	重	-0.22274731
-4.2006297	敷	-0.13435073
-3.2017996	ぼ	-0.41579717
-4.2006297	甲	-0.13435073
-4.2006297	斐	-0.13435073
-3.8044536	芝	-0.1610679
-2.803741	葉	-0.44075054
-3.8044536	角	-0.1610679
-3.4304159	ぬ	-0.19753239
-4.043125	斉	-0.13435073
-3.1462586	馬	-0.3789426
-3.3829567	場	-0.32025713
-3.2017996	ヘ	-0.30247548
-3.6151178	前	-0.1770264
-3.3012352	日	-0.21914528
-3.6151178	向	-0.1714256
-2.7482142	が	-0.43191338
-4.2006297	帰	-0.13435073
-3.5444598	嶺	-0.29004374
-4.2006297	湯	-0.13435073
-3.9430535	百	-0.20146869
-4.2006297	紺	-0.13435073
-3.6995485	栗	-0.17093632
-3.8044536	牛	-0.13435073
-4.2006297	薄	-0.13435073
-4.043125	瓶	-0.271569
-3.4304159	泉	-0.39907706
-3.8044536	後	-0.13435073
-3.483705	郷	-0.17035179
-3.3012352	ご	-0.25189003
-2.8957624	恵	-0.58024716
-4.043125	桂	-0.13435073
-3.4304159	留	-0.16967246
-3.6995485	草	-0.13435076
-3.8044536	望	-0.2615324
-3.3401766	条	-0.31953096
-3.3012352	成	-0.20805031
-2.5126567	だ	-0.47439128
-3.3012352	優	-0.2592226
-3.6995485	映	-0.26687533
-4.043125	足	-0.13435073
-3.9430535	青	-0.15197833
-3.8044536	四	-0.13435073
-3.483705	浩	-0.29009578
-3.6995485	桐	-0.1761652
-4.043125	恩	-0.13435076
-3.6151178	目	-0.15996706
-3.3829567	垣	-0.5125765
-4.043125	浅	-0.13435073
-4.2006297	笈	-0.13435073
-3.5444598	五	-0.17641509
-3.6151178	十	-0.13435073
-3.8044536	嵐	-0.13435073
-4.2006297	荻	-0.13435073
-3.6995485	衛	-0.20146869
-3.173142	を	-0.43650073
-2.9260814	間	-0.54976755
-4.043125	剣	-0.13435073
-3.173142	梨	-0.19456737
-3.0528033	郎	-1.0478182
-3.0528033	丸	-0.3099323
-3.2655	鳥	-0.25859222
-3.1462586	沼	-0.59704596
-2.57793	太	-0.837772
-3.3401766	佳	-0.25202203
-3.5444598	尻	-0.32799298
-3.9430535	持	-0.1475039
-3.07435	星	-0.19919194
-4.043125	半	-0.13435076
-3.07435	ヴ	-0.56366456
-3.4304159	国	-0.18818022
-3.8044536	迫	-0.16838077
-3.3012352	ざ	-0.30385363
-3.6995485	辻	-0.1693385
-3.3012352	ポ	-0.32603562
-3.2017996	織	-0.2526778
-3.2655	智	-0.16170447
-3.9430535	椋	-0.13435069
-4.2006297	扇	-0.13435073
-3.8044536	源	-0.13435073
-2.8674226	右	-0.8847651
-3.5444598	富	-0.19330251
-3.2655	勝	-0.14602262
-3.0126736	治	-0.62860316
-3.9430535	芽	-0.13435073
-2.9106574	華	-0.23138267
-4.043125	曽	-0.13435073
-3.6995485	我	-0.15895337
-4.2006297	伴	-0.13435069
-4.043125	錦	-0.13435073
-4.2006297	芦	-0.13435073
-2.828105	志	-0.40446368
-3.3829567	朝	-0.16109933
-3.8044536	又	-0.27607486
-4.2006297	茨	-0.13435073
-3.6151178	味	-0.1610679
-4.2006297	橘	-0.13435073
-3.3401766	麻	-0.16705197
-3.3012352	地	-0.47556683
-3.4304159	杉	-0.40998167
-4.043125	米	-0.15559138
-4.2006297	7	-0.13435073
-4.043125	雨	-0.13435073
-3.8044536	俣	-0.27056617
-4.2006297	袴	-0.13435073
-4.043125	酒	-0.13435073
-4.2006297	諏	-0.13435073
-4.2006297	訪	-0.13435069
-3.1209428	2	-0.9606681
-4.2006297	乾	-0.13435073
-3.2655	多	-0.2727669
-3.9430535	館	-0.13435076
-3.9430535	逢	-0.13435076
-3.9430535	影	-0.13435073
-3.3401766	町	-0.252771
-3.4304159	吹	-0.21044602
-3.8044536	切	-0.27352804
-3.6151178	昌	-0.17035182
-3.1209428	夫	-0.9606681
-4.043125	沖	-0.13435073
-4.043125	爪	-0.1510325
-3.6995485	魚	-0.22471318
-4.2006297	的	-0.13435073
-3.0126736	パ	-0.32321402
-3.097022	園	-0.26915663
-4.043125	丹	-0.13435073
-3.0126736	堂	-0.26560783
-4.043125	坪	-0.13435073
-3.8044536	端	-0.23356676
-4.043125	楠	-0.13435069
-4.043125	椿	-0.13435073
-4.2006297	庄	-0.13435073
-3.1209428	司	-0.34392992
-3.483705	比	-0.18953703
-3.4304159	嘉	-0.17630385
-4.2006297	臼	-0.13435076
-4.043125	階	-0.13435073
-3.5444598	ぞ	-0.24541697
-2.8813612	音	-0.26423538
-3.9430535	祐	-0.13435073
-3.6995485	梅	-0.15423296
-4.043125	堤	-0.14449883
-3.3012352	路	-0.22221836
-3.8044536	庭	-0.2630579
-3.9430535	深	-0.1423977
-4.2006297	益	-0.13435076
-3.3401766	寺	-0.26815435
-3.2655	春	-0.20813303
-3.9430535	近	-0.13435073
-4.043125	室	-0.14602262
-3.6995485	瀧	-0.13435073
-3.173142	幸	-0.23327811
-3.3401766	博	-0.42100778
-4.043125	常	-0.13435073
-3.097022	男	-0.7423885
-3.483705	紗	-0.24030809
-3.9430535	添	-0.1464779
-3.8044536	岐	-0.17035182
-3.4304159	達	-0.25803885
-3.8044536	桑	-0.1666144
-3.6995485	へ	-0.22471318
-3.5444598	瑠	-0.19491988
-3.232483	明	-0.3393665
-4.043125	淀	-0.13435073
-3.097022	ば	-0.30693626
-4.2006297	葛	-0.13435073
-4.043125	砲	-0.13435073
-3.6151178	万	-0.13435076
-4.2006297	服	-0.13435073
-3.6995485	遠	-0.1666144
-3.9430535	溝	-0.1464779
-3.6151178	勢	-0.1610679
-4.2006297	柿	-0.13435073
-3.0126736	良	-0.37654287
-4.043125	梶	-0.14697002
-4.2006297	念	-0.13435073
-3.483705	で	-0.1996555
-3.8044536	幡	-0.27665916
-4.043125	染	-0.13435076
-4.043125	猪	-0.18121077
-4.2006297	股	-0.13435069
-3.9430535	柚	-0.13435073
-3.4304159	女	-0.23517793
-4.043125	猿	-0.13435076
-4.2006297	宍	-0.13435073
-4.2006297	湊	-0.13435073
-3.4304159	晴	-0.20527874
-2.7083976	咲	-0.3565338
-3.4304159	守	-0.16358024
-3.9430535	尋	-0.13435076
-3.8044536	瑛	-0.13435073
-4.2006297	妹	-0.13435073
-4.043125	氏	-0.13435076
-3.07435	家	-0.28653598
-3.4304159	八	-0.17182809
-4.043125	鬼	-0.13435073
-3.8044536	樫	-0.23852438
-4.043125	辰	-0.13435076
-3.483705	巳	-0.21125564
-4.043125	込	-0.13435073
-3.6995485	宗	-0.13435073
-3.232483	裕	-0.2130528
-3.8044536	布	-0.18121077
-3.232483	理	-0.37293363
-4.2006297	柏	-0.13435073
-3.5444598	巻	-0.26595402
-3.8044536	芳	-0.18066287
-4.2006297	笹	-0.13435069
-3.9430535	児	-0.22000416
-3.6995485	憲	-0.26687533
-4.043125	茜	-0.13435073
-3.8044536	住	-0.13435073
-2.7083976	奈	-0.37559214
-3.9430535	取	-0.14941585
-2.9586768	希	-0.29706842
-3.173142	道	-0.21128511
-3.173142	緒	-0.4091422
-3.3012352	方	-0.21023065
-4.043125	謝	-0.13435073
-4.2006297	隠	-0.13435073
-3.232483	歩	-0.45282304
-3.6995485	崇	-0.26687533
-4.2006297	帥	-0.13435073
-4.043125	窪	-0.13435076
-3.9430535	魔	-0.13435073
-3.4304159	王	-0.18953703
-4.2006297	疋	-0.13435073
-2.6719267	里	-0.3755593
-3.9430535	牧	-0.14359379
-3.4304159	羅	-0.19491988
-4.043125	板	-0.17035182
-3.9430535	肥	-0.13435073
-4.2006297	鎌	-0.13435073
-3.5444598	夢	-0.16388606
-4.2006297	淑	-0.13435076
-4.043125	会	-0.13435076
-4.2006297	渥	-0.13435073
-3.483705	好	-0.15148026
-4.043125	為	-0.13435076
-3.8044536	仙	-0.18121077
-3.9430535	府	-0.13435076
-4.2006297	姉	-0.13435073
-4.043125	御	-0.13435073
-3.8044536	鷹	-0.13435073
-4.2006297	寝	-0.13435073
-4.043125	坊	-0.13435073
-4.2006297	港	-0.13435073
-4.2006297	逆	-0.13435073
-4.043125	柱	-0.13435073
-3.2655	洋	-0.24609627
-3.3829567	義	-0.17718598
-3.3401766	亭	-0.1510325
-3.483705	冬	-0.2229949
-3.9430535	流	-0.13435073
-4.043125	鍋	-0.13435073
-3.8044536	礼	-0.13435073
-3.173142	雅	-0.20982412
-4.043125	巣	-0.13435073
-3.0322752	実	-0.42700595
-2.9260814	波	-0.25527215
-3.9430535	老	-0.13435076
-3.0528033	光	-0.24706638
-4.2006297	干	-0.13435073
-4.2006297	唐	-0.13435073
-4.043125	冨	-0.18953703
-3.9430535	納	-0.13435076
-4.2006297	樋	-0.13435073
-3.6995485	槻	-0.15488973
-3.2655	秀	-0.20572211
-3.5444598	伸	-0.20294558
-3.1209428	英	-0.3415084
-3.0126736	雄	-0.5775783
-3.9430535	章	-0.22000416
-4.2006297	蝦	-0.13435073
-3.9430535	宝	-0.13435073
-3.6995485	邦	-0.20146869
-4.2006297	塙	-0.13435073
-3.3401766	峰	-0.20626457
-4.2006297	堺	-0.13435073
-4.043125	ぺ	-0.22000416
-4.2006297	難	-0.13435073
-3.483705	3	-0.81082344
-3.07435	正	-0.18570699
-3.3829567	昭	-0.22855273
-4.043125	築	-0.15303786
-4.2006297	筒	-0.13435073
-2.8813612	之	-0.5245411
-3.3829567	助	-0.7053956
-4.2006297	詰	-0.13435073
-3.9430535	電	-0.13435076
-4.2006297	栃	-0.13435073
-3.6995485	心	-0.17035182
-3.4304159	剛	-0.253011
-3.3829567	史	-0.3506376
-4.043125	畠	-0.13435076
-4.043125	麿	-0.13435073
-4.043125	緑	-0.13435073
-4.2006297	互	-0.13435073
-4.2006297	偉	-0.13435073
-3.9430535	昇	-0.25277096
-3.173142	由	-0.26865083
-3.9430535	栖	-0.18953703
-4.043125	欣	-0.13435073
-3.6995485	飛	-0.18964078
-4.2006297	蚊	-0.13435073
-3.8044536	輪	-0.15603381
-3.5444598	沙	-0.15559138
-3.8044536	璃	-0.26687533
-4.2006297	緋	-0.13435073
-3.8044536	貝	-0.22076727
-4.043125	伯	-0.13435073
-3.8044536	蓮	-0.17035182
-4.043125	狩	-0.13435076
-3.8044536	作	-0.22000416
-3.9430535	初	-0.13435073
-3.4304159	俊	-0.2229949
-4.2006297	祈	-0.13435073
-4.2006297	敦	-0.13435076
-4.043125	暮	-0.13435073
-3.5444598	彩	-0.14602262
-3.6995485	季	-0.20146869
-4.2006297	設	-0.13435073
-3.6151178	楽	-0.1610679
-4.043125	逸	-0.13435073
-4.043125	架	-0.13435076
-3.6995485	ぱ	-0.20146869
-2.9420733	輝	-0.27321306
-4.2006297	窓	-0.13435073
-4.2006297	如	-0.13435073
-4.2006297	卓	-0.13435073
-4.043125	筑	-0.13435076
-3.3401766	登	-0.24178615
-4.043125	律	-0.13435076
-3.6995485	妻	-0.18489988
-4.2006297	並	-0.13435073
-3.6995485	楓	-0.22471318
-4.2006297	皆	-0.13435076
-3.3012352	満	-0.20714921
-3.9430535	睦	-0.25277096
-3.5444598	康	-0.1666144
-4.2006297	諸	-0.13435076
-3.9430535	汐	-0.13435073
-3.9430535	忍	-0.22000416
-4.2006297	外	-0.13435076
-3.9430535	悦	-0.13435076
-4.2006297	落	-0.13435073
-4.2006297	首	-0.13435073
-4.2006297	綿	-0.13435073
-3.8044536	貫	-0.28132042
-3.9430535	葵	-0.15303786
-3.173142	彦	-0.7720253
-3.3401766	寿	-0.16226766
-3.232483	空	-0.19491993
-4.2006297	芹	-0.13435073
-3.2655	絵	-0.47633022
-3.3401766	仁	-0.2679361
-3.6995485	盛	-0.20146869
-4.2006297	佃	-0.13435073
-3.3012352	陽	-0.25189003
-3.3012352	栄	-0.49529445
-4.2006297	雁	-0.13435073
-4.2006297	眉	-0.13435073
-3.9430535	淵	-0.1610679
-3.9430535	紅	-0.17035182
-4.043125	露	-0.13435073
-3.6995485	琴	-0.15303786
-4.043125	鷲	-0.13435073
-3.483705	桃	-0.16661444
-3.483705	べ	-0.19851315
-4.043125	暁	-0.13435076
-4.043125	耶	-0.13435073
-4.2006297	最	-0.13435076
-3.9430535	潤	-0.20146869
-3.1462586	介	-1.1381824
-3.5444598	澄	-0.19557753
-3.6995485	忠	-0.20146869
-3.232483	弥	-0.32433933
-3.6151178	凪	-0.13435073
-4.2006297	打	-0.13435073
-3.5444598	慶	-0.18121077
-3.4304159	文	-0.20812337
-3.3012352	喜	-0.2813746
-4.2006297	榎	-0.13435073
-4.043125	倍	-0.13435076
-3.8044536	耕	-0.20146869
-3.6995485	妃	-0.13435076
-4.2006297	了	-0.13435073
-3.9430535	護	-0.13435076
-3.2017996	プ	-0.27382594
-3.0322752	ぜ	-0.8060576
-3.8044536	虎	-0.13435076
-3.9430535	A	-0.13435076
-3.4304159	勇	-0.36817598
-4.043125	鴨	-0.13435073
-3.097022	紀	-0.46859917
-4.2006297	鮫	-0.13435073
-4.043125	瞳	-0.13435073
-3.2655	ぽ	-0.24248156
-4.2006297	舎	-0.13435073
-4.043125	祭	-0.13435076
-3.5444598	玲	-0.2591253
-4.043125	箱	-0.13435073
-3.8044536	座	-0.13435073
-3.8044536	景	-0.22000416
-3.6995485	涼	-0.15303786
-4.2006297	O	-0.13435073
-3.8044536	輔	-0.50979346
-4.2006297	袋	-0.13435073
-4.043125	ヂ	-0.13435073
-3.9430535	舟	-0.13435076
-4.2006297	叶	-0.13435076
-4.043125	鯉	-0.13435076
-4.2006297	主	-0.13435073
-4.2006297	審	-0.13435073
-4.2006297	櫨	-0.13435073
-3.483705	無	-0.1666144
-4.043125	仮	-0.13435073
-4.2006297	団	-0.13435076
-3.483705	舞	-0.15197833
-4.2006297	副	-0.13435073
-4.043125	像	-0.14808492
-4.043125	使	-0.13435073
-3.8044536	起	-0.13435073
-3.8044536	S	-0.13435073
-4.2006297	P	-0.13435073
-4.2006297	墨	-0.13435073
-3.8044536	梢	-0.22000416
-3.8044536	隆	-0.18953703
-3.6995485	圭	-0.24178615
-4.2006297	街	-0.13435073
-4.2006297	柄	-0.13435073
-4.2006297	悪	-0.13435073
-4.2006297	臭	-0.13435073
-3.9430535	丈	-0.25277096
-4.2006297	対	-0.13435073
-3.8044536	童	-0.13435073
-4.043125	現	-0.13435073
-4.043125	象	-0.32680693
-4.2006297	灰	-0.13435076
-4.2006297	鞍	-0.13435073
-4.2006297	楯	-0.13435073
-4.2006297	粕	-0.13435073
-3.9430535	雷	-0.13435073
-4.2006297	枢	-0.13435073
-3.9430535	走	-0.13435076
-4.2006297	摩	-0.13435073
-4.2006297	延	-0.13435073
-3.6151178	啓	-0.22000416
-3.9430535	隈	-0.13435076
-4.2006297	拝	-0.13435073
-4.2006297	県	-0.13435073
-4.043125	丞	-0.13435073
-4.2006297	降	-0.13435073
-3.8044536	渚	-0.13435073
-3.6151178	政	-0.1666144
-4.2006297	鮎	-0.13435073
-3.2655	丘	-0.15018302
-4.043125	斑	-0.32680693
-3.9430535	鳩	-0.13435073
-4.2006297	棚	-0.13435073
-4.2006297	獅	-0.13435073
-3.9430535	藍	-0.1666144
-3.5444598	竜	-0.13435073
-4.2006297	孫	-0.13435073
-4.2006297	族	-0.13435073
-3.483705	行	-0.23294178
-4.043125	位	-0.13435073
-3.5444598	ヱ	-0.41300336
-3.8044536	繁	-0.22000416
-3.8044536	快	-0.13435073
-3.8044536	周	-0.13435073
-3.8044536	蘭	-0.13435073
-3.9430535	陸	-0.13435076
-4.2006297	積	-0.13435073
-3.3829567	央	-0.2621914
-3.8044536	哉	-0.50979346
-4.2006297	秦	-0.13435069
-3.4304159	帆	-0.30924493
-4.2006297	面	-0.13435073
-3.9430535	与	-0.20146869
-4.043125	総	-0.13435073
-4.2006297	廼	-0.13435073
-4.2006297	芸	-0.13435073
-3.8044536	碧	-0.16358024
-3.483705	珠	-0.21284753
-4.2006297	格	-0.13435073
-3.483705	ぴ	-0.2827051
-3.6995485	翠	-0.22000416
-3.9430535	憂	-0.25277096
-3.8044536	克	-0.17506927
-3.6151178	基	-0.13435073
-3.6995485	師	-0.13435076
-4.043125	糸	-0.13435073
-4.2006297	鋸	-0.13435073
-4.2006297	運	-0.13435073
-3.6995485	湖	-0.13435073
-4.2006297	億	-0.13435073
-4.043125	堅	-0.13435073
-4.043125	具	-0.13435073
-4.043125	徒	-0.13435073
-4.2006297	硝	-0.13435073
-4.2006297	戎	-0.13435073
-3.9430535	麗	-0.13435076
-3.3012352	衣	-0.54281616
-4.043125	慎	-0.13435076
-3.6151178	夕	-0.18953703
-3.3401766	亜	-0.20626457
-4.2006297	寒	-0.13435076
-4.2006297	燦	-0.13435073
-3.6151178	遥	-0.1666144
-4.043125	雛	-0.13435073
-4.043125	円	-0.13435076
-3.9430535	自	-0.25277096
-4.043125	6	-0.13435073
-3.1462586	未	-0.4413585
-3.6151178	拓	-0.17506927
-4.043125	郡	-0.13435073
-4.2006297	腰	-0.13435073
-4.2006297	亨	-0.13435073
-3.483705	尚	-0.30924493
-4.2006297	奇	-0.13435073
-3.9430535	朱	-0.20146869
-3.6151178	孝	-0.19491988
-3.2655	純	-0.17035182
-4.043125	台	-0.13435073
-4.2006297	観	-0.13435073
-4.2006297	禄	-0.13435073
-4.2006297	哀	-0.13435073
-3.8044536	修	-0.22000416
-4.043125	猛	-0.32680693
-3.8044536	乙	-0.18121077
-4.2006297	ヰ	-0.13435073
-3.8044536	M	-0.13435073
-4.043125	I	-0.13435076
-4.2006297	C	-0.13435073
-4.2006297	K	-0.13435073
-3.6151178	E	-0.18953703
-4.2006297	Y	-0.13435073
-4.2006297	壇	-0.13435073
-3.4304159	健	-0.2286982
-3.6995485	静	-0.19557753
-3.483705	弘	-0.23294178
-3.483705	晃	-0.30924493
-3.8044536	恭	-0.13435073
-3.8044536	晋	-0.13435073
-4.2006297	伶	-0.13435073
-3.483705	来	-0.16358024
-3.3829567	次	-0.44575825
-3.9430535	磨	-0.13435073
-4.2006297	氷	-0.13435073
-4.2006297	紡	-0.13435073
-3.8044536	奏	-0.20146869
-3.9430535	寧	-0.38485473
-3.9430535	匡	-0.25277096
-4.2006297	冴	-0.13435076
-4.2006297	坤	-0.13435073
-4.043125	豆	-0.13435073
-4.2006297	槙	-0.13435073
-4.043125	厚	-0.13435073
-4.2006297	腹	-0.13435073
-3.9430535	肉	-0.13435076
-4.043125	苗	-0.13435073
-4.2006297	楢	-0.13435073
-3.5444598	将	-0.18121077
-3.9430535	壁	-0.13435076
-3.6995485	鏡	-0.26687533
-4.043125	色	-0.13435076
-4.2006297	穐	-0.13435073
-3.8044536	聖	-0.13435076
-4.2006297	R	-0.13435073
-4.2006297	聞	-0.13435073
-4.043125	絢	-0.13435073
-3.6995485	霧	-0.13435073
-3.9430535	則	-0.30745554
-4.2006297	底	-0.13435073
-4.2006297	瞬	-0.13435073
-4.2006297	錠	-0.13435073
-3.6995485	浪	-0.13435073
-3.6151178	稀	-0.13435073
-4.2006297	開	-0.13435073
-4.043125	隼	-0.13435073
-4.043125	蒼	-0.13435073
-3.9430535	岳	-0.13435073
-3.8044536	泰	-0.21233492
-4.2006297	嵩	-0.13435073
-3.6151178	夜	-0.18121077
-4.043125	響	-0.13435076
-4.2006297	瓦	-0.13435073
-4.2006297	鈍	-0.13435073
-3.3829567	果	-0.24870309
-3.5444598	哲	-0.18121077
-4.2006297	榛	-0.13435073
-4.2006297	脈	-0.13435073
-4.2006297	濃	-0.13435073
-4.2006297	翁	-0.13435073
-4.2006297	碇	-0.13435073
-4.043125	謙	-0.13435073
-4.2006297	整	-0.13435073
-3.9430535	琉	-0.25277096
-3.8044536	鳳	-0.13435073
-3.9430535	瓜	-0.13435073
-4.2006297	甘	-0.13435073
-4.2006297	何	-0.13435073
-4.043125	皇	-0.13435073
-4.2006297	穴	-0.13435073
-3.6995485	力	-0.20146869
-3.9430535	気	-0.22000416
-4.043125	洞	-0.13435073
-3.9430535	銀	-0.18121077
-3.8044536	伝	-0.30745554
-4.2006297	説	-0.13435076
-4.2006297	物	-0.13435073
-4.2006297	惑	-0.13435073
-4.2006297	同	-0.13435073
-4.2006297	盟	-0.13435073
-4.043125	可	-0.13435076
-4.2006297	杜	-0.13435073
-4.043125	民	-0.13435073
-3.6995485	瑞	-0.16358024
-3.8044536	朗	-0.30745554
-3.8044536	邑	-0.13435073
-3.9430535	嗣	-0.38485473
-3.3829567	直	-0.15423296
-4.2006297	夙	-0.13435073
-4.043125	N	-0.13435073
-4.2006297	唱	-0.13435073
-4.043125	鉄	-0.13435076
-4.043125	骨	-0.13435073
-3.9430535	巨	-0.25277096
-4.2006297	双	-0.13435073
-3.8044536	佑	-0.22000416
-3.9430535	宙	-0.13435076
-3.9430535	恒	-0.13435073
-4.2006297	黛	-0.13435076
-4.043125	萌	-0.13435073
-4.2006297	養	-0.13435073
-4.2006297	蔭	-0.13435073
-3.6995485	郁	-0.20146869
-3.6151178	充	-0.48354682
-4.2006297	灘	-0.13435073
-4.2006297	親	-0.13435073
-4.2006297	管	-0.13435073
-4.043125	善	-0.13435073
-4.2006297	鴻	-0.13435073
-4.2006297	乗	-0.13435073
-4.043125	此	-0.13435076
-4.043125	群	-0.13435073
-4.2006297	全	-0.13435073
-3.8044536	猫	-0.13435073
-4.2006297	紋	-0.13435073
-3.8044536	誠	-0.20146869
-4.043125	禾	-0.13435073
-3.9430535	敬	-0.18953703
-4.043125	9	-0.32680693
-3.4304159	信	-0.1666144
-4.043125	異	-0.13435073
-4.043125	李	-0.13435073
-4.043125	能	-0.13435073
-3.6995485	薫	-0.24178615
-3.9430535	壱	-0.13435073
-3.9430535	遼	-0.13435073
-4.2006297	帝	-0.13435073
-4.2006297	葦	-0.13435073
-4.2006297	笛	-0.13435073
-4.2006297	馨	-0.13435073
-4.2006297	彪	-0.13435073
-3.8044536	悟	-0.30745554
-4.2006297	免	-0.13435073
-4.043125	許	-0.13435073
-4.2006297	釜	-0.13435073
-4.2006297	耐	-0.13435073
-4.2006297	覇	-0.13435073
-4.2006297	陵	-0.13435073
-4.043125	茅	-0.13435073
-3.8044536	己	-0.30745554
-3.6151178	ぷ	-0.22471318
-4.043125	種	-0.13435073
-4.2006297	廠	-0.13435073
-3.8044536	刀	-0.20146869
-3.9430535	房	-0.13435076
-4.043125	T	-0.32680693
-4.2006297	蘇	-0.13435073
-4.2006297	楳	-0.13435073
-4.2006297	図	-0.13435073
-3.9430535	字	-0.13435076
-4.2006297	火	-0.13435076
-4.2006297	陶	-0.13435073
-3.9430535	航	-0.20146869
-4.2006297	蜂	-0.13435073
-4.043125	F	-0.13435073
-3.9430535	兄	-0.25277096
-4.2006297	弟	-0.13435073
-3.9430535	洲	-0.13435076
-3.9430535	恋	-0.13435073
-4.2006297	飴	-0.13435073
-4.2006297	震	-0.13435073
-4.2006297	不	-0.13435073
-4.043125	動	-0.13435076
-4.043125	車	-0.13435076
-4.2006297	煮	-0.13435073
-4.043125	碕	-0.13435073
-4.2006297	柊	-0.13435073
-4.2006297	狛	-0.13435073
-4.2006297	貢	-0.13435073
-3.9430535	岬	-0.13435073
-4.2006297	盤	-0.13435073
-3.9430535	建	-0.13435076
-4.2006297	隅	-0.13435073
-4.2006297	淡	-0.13435073
-3.8044536	弓	-0.13435073
-4.2006297	働	-0.13435073
-3.9430535	徹	-0.22000416
-4.2006297	肌	-0.13435073
-4.2006297	卿	-0.13435073
-4.043125	爾	-0.13435073
-4.043125	聡	-0.13435073
-4.2006297	刻	-0.13435073
-4.043125	定	-0.13435073
-4.2006297	屯	-0.13435073
-4.043125	頂	-0.13435073
-3.5444598	宏	-0.26348743
-4.043125	束	-0.13435073
-4.2006297	節	-0.13435073
-4.2006297	宿	-0.13435073
-4.2006297	賢	-0.13435073
-4.043125	征	-0.13435073
-3.8044536	亮	-0.20146869
-4.2006297	串	-0.13435073
-4.2006297	搭	-0.13435073
-4.2006297	話	-0.13435073
-4.2006297	寄	-0.13435073
-4.2006297	H	-0.13435073
-4.2006297	浮	-0.13435073
-3.9430535	靖	-0.13435076
-3.4304159	蔵	-0.6596381
-4.043125	是	-0.13435073
-3.5444598	詩	-0.17506927
-4.043125	乱	-0.13435073
-4.2006297	折	-0.13435073
-4.2006297	埜	-0.13435073
-4.2006297	0	-0.13435073
-4.043125	笑	-0.13435073
-4.2006297	X	-0.13435073
-4.2006297	軽	-0.13435073
-3.6995485	晶	-0.18953703
-4.2006297	睡	-0.13435073
-4.2006297	箸	-0.13435073
-4.2006297	針	-0.13435073
-4.2006297	享	-0.13435073
-4.2006297	荘	-0.13435073
-3.9430535	彰	-0.13435073
-4.2006297	胡	-0.13435073
-4.2006297	盲	-0.13435073
-4.2006297	導	-0.13435073
-4.2006297	冷	-0.13435073
-4.2006297	卜	-0.13435073
-4.043125	軍	-0.13435073
-3.6995485	峯	-0.13435073
-3.9430535	卯	-0.13435073
-3.8044536	祥	-0.17506927
-4.043125	8	-0.32680693
-3.9430535	宵	-0.13435076
-4.043125	鷺	-0.13435073
-4.2006297	駿	-0.13435073
-4.043125	豪	-0.13435073
-4.2006297	樺	-0.13435073
-4.2006297	虫	-0.13435073
-3.9430535	鋭	-0.13435076
-4.2006297	規	-0.13435073
-3.5444598	吾	-0.5504936
-4.2006297	雑	-0.13435073
-4.2006297	旬	-0.13435073
-3.9430535	六	-0.13435073
-4.043125	至	-0.13435073
-4.2006297	憧	-0.13435073
-4.2006297	故	-0.13435073
-3.9430535	慈	-0.13435076
-4.2006297	勲	-0.13435073
-4.2006297	蒔	-0.13435073
-4.2006297	順	-0.13435073
-4.2006297	塔	-0.13435073
-3.9430535	敏	-0.13435073
-4.043125	反	-0.13435073
-4.2006297	密	-0.13435073
-4.2006297	当	-0.13435073
-4.2006297	薗	-0.13435073
-3.8044536	公	-0.13435076
-4.2006297	筏	-0.13435073
-4.043125	継	-0.13435073
-4.2006297	才	-0.13435073
-4.2006297	他	-0.13435073
-4.2006297	朴	-0.13435073
-4.043125	喬	-0.13435073
-4.2006297	鍵	-0.13435073
-4.2006297	誰	-0.13435073
-4.043125	造	-0.32680693
-4.2006297	呪	-0.13435073
-4.2006297	君	-0.13435073
-4.2006297	蓬	-0.13435073
-3.8044536	茶	-0.13435073
-4.2006297	辛	-0.13435073
-4.2006297	欧	-0.13435073
-4.2006297	極	-0.13435076
-4.2006297	押	-0.13435073
-4.2006297	冥	-0.13435073
-4.2006297	環	-0.13435073
-4.2006297	粟	-0.13435073
-4.043125	菓	-0.13435073
-4.2006297	桝	-0.13435073
-4.2006297	狭	-0.13435073
-4.2006297	慧	-0.13435073
-4.2006297	菖	-0.13435073
-4.2006297	蒲	-0.13435073
-4.043125	5	-0.32680693
-4.2006297	薙	-0.13435073
-4.2006297	黄	-0.13435076
-4.2006297	麦	-0.13435073
-4.2006297	類	-0.13435073
-4.043125	梓	-0.13435076
-3.5444598	淳	-0.17506927
-4.2006297	藁	-0.13435073
-3.9430535	州	-0.13435076
-3.6995485	典	-0.24178615
-4.2006297	抱	-0.13435073
-4.2006297	割	-0.13435073
-4.043125	式	-0.13435073
-4.043125	紘	-0.13435073
-4.2006297	虹	-0.13435073
-4.2006297	斧	-0.13435073
-4.2006297	弦	-0.13435073
-4.2006297	L	-0.13435073
-4.2006297	破	-0.13435073
-4.2006297	廉	-0.13435073
-4.2006297	醇	-0.13435073
-4.043125	寛	-0.13435073
-4.2006297	蜜	-0.13435076
-3.9430535	唯	-0.13435073
-4.2006297	畦	-0.13435073
-4.2006297	棟	-0.13435073
-4.043125	朋	-0.13435076
-4.2006297	埴	-0.13435073
-4.2006297	斯	-0.13435073
-4.2006297	妙	-0.13435073
-4.043125	幹	-0.13435073
-4.2006297	媛	-0.13435073
-4.043125	速	-0.13435073
-4.2006297	誉	-0.13435073
-4.2006297	番	-0.13435073
-4.2006297	曲	-0.13435073
-4.2006297	法	-0.13435073
-4.2006297	温	-0.13435073
-4.2006297	乳	-0.13435073
-4.2006297	昼	-0.13435073
-4.2006297	鐘	-0.13435073
-4.2006297	九	-0.13435073
-4.2006297	伍	-0.13435073
-3.9430535	芙	-0.13435076
-4.2006297	籾	-0.13435073
-4.2006297	透	-0.13435073
-4.043125	覚	-0.13435073
-4.2006297	溜	-0.13435073
-3.9430535	甫	-0.38485473
-4.2006297	菌	-0.13435073
-4.2006297	等	-0.13435073
-4.2006297	際	-0.13435073
-4.2006297	儀	-0.13435073
-4.2006297	計	-0.13435073
-4.2006297	厘	-0.13435073
-4.2006297	鋼	-0.13435073
-4.043125	甚	-0.13435073
-4.2006297	推	-0.13435073
-4.2006297	胸	-0.13435073
-4.2006297	梱	-0.13435073
-4.2006297	曙	-0.13435073
-4.043125	垂	-0.13435073
-4.2006297	仏	-0.13435073
-4.2006297	縄	-0.13435073
-4.2006297	劉	-0.13435073
-4.2006297	播	-0.13435073
-4.2006297	判	-0.13435073
-4.2006297	馴	-0.13435073
-4.2006297	糟	-0.13435073
-4.2006297	肇	-0.13435073
-4.2006297	翼	-0.13435073
-4.2006297	痩	-0.13435073
-4.2006297	姿	-0.13435073
-4.2006297	官	-0.13435073
-3.9430535	令	-0.13435076
-4.2006297	声	-0.13435073
-4.2006297	漣	-0.13435073
-4.2006297	身	-0.13435073
-4.2006297	年	-0.13435073
-4.2006297	予	-0.13435073
-4.2006297	摘	-0.13435073
-4.043125	尊	-0.13435073
-4.2006297	舛	-0.13435073
-4.2006297	瑚	-0.13435073
-3.9430535	寅	-0.13435076
-4.2006297	檀	-0.13435076
-4.2006297	暖	-0.13435073
-4.2006297	沓	-0.13435073
-4.2006297	脱	-0.13435073
-4.2006297	狼	-0.13435073
-4.2006297	鯨	-0.13435073
-4.043125	雫	-0.13435073
-4.043125	匠	-0.13435073
-4.2006297	集	-0.13435073
-3.9430535	院	-0.13435076
-4.2006297	允	-0.13435073
-4.2006297	鼻	-0.13435073
-4.2006297	袖	-0.13435073
-4.2006297	薬	-0.13435073
-4.2006297	倫	-0.13435073
-4.2006297	夷	-0.13435073
-4.2006297	厨	-0.13435073
-4.2006297	艶	-0.13435073
-4.2006297	旺	-0.13435073
-4.2006297	膳	-0.13435073
-4.2006297	跡	-0.13435073
-4.2006297	玖	-0.13435073
-4.2006297	抄	-0.13435073
-4.2006297	瑳	-0.13435073
-4.2006297	陣	-0.13435073
-4.043125	櫛	-0.13435073
-4.2006297	承	-0.13435073
-3.9430535	語	-0.13435076
-4.2006297	瞭	-0.13435073
-4.043125	零	-0.32680693
-4.2006297	兎	-0.13435076
-4.2006297	壮	-0.13435073
-4.2006297	諭	-0.13435073
-4.2006297	峡	-0.13435073
-4.2006297	巽	-0.13435073
-4.2006297	倒	-0.13435073
-4.2006297	梁	-0.13435073
-4.2006297	策	-0.13435073
-4.2006297	私	-0.13435073
-4.2006297	側	-0.13435073
-4.2006297	侍	-0.13435073
-3.9430535	勉	-0.38485473
-4.2006297	朔	-0.13435073
-4.2006297	哨	-0.13435073
-4.2006297	食	-0.13435073
-4.2006297	詔	-0.13435073
-4.2006297	啄	-0.13435073
-4.2006297	舘	-0.13435073
-4.2006297	革	-0.13435073
-4.2006297	駆	-0.13435073
-4.2006297	槍	-0.13435073
-4.2006297	累	-0.13435073
-4.2006297	苫	-0.13435073
-4.2006297	蓉	-0.13435073
-4.2006297	企	-0.13435073
-4.2006297	精	-0.13435073
-4.2006297	祷	-0.13435073
-4.2006297	獲	-0.13435073
-4.2006297	諒	-0.13435073
-4.2006297	烏	-0.13435073
-4.2006297	汰	-0.13435073
-4.2006297	戦	-0.13435073
-4.2006297	艦	-0.13435073
-3.9430535	顕	-0.38485473
-4.043125	要	-0.13435076
-4.2006297	或	-0.13435073
-4.2006297	単	-0.13435073
-4.043125	綱	-0.13435073
-4.043125	殿	-0.13435073
-4.043125	記	-0.13435073
-4.2006297	涌	-0.13435073
-4.2006297	朽	-0.13435073
-4.2006297	帯	-0.13435073
-4.2006297	餅	-0.13435073
-4.2006297	務	-0.13435073
-4.2006297	揚	-0.13435073
-4.043125	仔	-0.13435073
-4.2006297	雀	-0.13435073
-4.2006297	体	-0.13435073
-4.2006297	育	-0.13435073
-4.2006297	稔	-0.13435073
-4.2006297	箕	-0.13435073
-4.2006297	追	-0.13435073
-4.2006297	V	-0.13435073
-4.2006297	稜	-0.13435073
-4.2006297	呉	-0.13435073
-4.2006297	杵	-0.13435073
-4.2006297	球	-0.13435073
-4.2006297	潟	-0.13435073
-4.043125	蝶	-0.13435073
-4.2006297	庫	-0.13435073
-4.2006297	供	-0.13435073
-4.2006297	眺	-0.13435073
-4.2006297	汀	-0.13435073
-4.043125	操	-0.32680693
-4.2006297	篤	-0.13435073
-4.2006297	鯛	-0.13435073
-4.2006297	酸	-0.13435073
-4.2006297	滋	-0.13435073
-4.2006297	強	-0.13435073
-4.2006297	弐	-0.13435073
-4.2006297	宋	-0.13435073
-4.2006297	素	-0.13435073
-4.2006297	峻	-0.13435073
-4.2006297	坐	-0.13435073
-4.2006297	貞	-0.13435073
-4.2006297	厩	-0.13435073
-4.2006297	農	-0.13435073
-4.2006297	暦	-0.13435073
-4.2006297	数	-0.13435073
-4.2006297	詠	-0.13435073
-4.2006297	升	-0.13435073
-4.2006297	亦	-0.13435073
-4.2006297	険	-0.13435073
-4.2006297	防	-0.13435073
-4.2006297	考	-0.13435073
-4.2006297	倖	-0.13435073
-4.2006297	怜	-0.13435073
-4.2006297	娘	-0.13435073
-4.2006297	祢	-0.13435073
-4.2006297	額	-0.13435073
-4.2006297	粂	-0.13435073
-4.2006297	模	-0.13435073
-4.2006297	範	-0.13435073
-4.2006297	連	-0.13435073
-4.2006297	性	-0.13435073
-4.2006297	巧	-0.13435073
-4.2006297	耀	-0.13435073
-4.2006297	禽	-0.13435073
-4.2006297	楼	-0.13435073
-4.2006297	財	-0.13435073
-4.2006297	刈	-0.13435073
-4.2006297	普	-0.13435073
-4.2006297	奨	-0.13435073
-4.2006297	斌	-0.13435073
-4.2006297	功	-0.13435073
-4.2006297	統	-0.13435073
-4.2006297	捺	-0.13435073

\2-grams:
-1.5008935	ヵ </s>	0
-1.6601017	ワ </s>	0
-1.8990718	タ </s>	0
-1.6405325	ァ </s>	0
-1.1147393	ォ </s>	0
-1.603965	ミ </s>	0
-1.4332916	ガ </s>	0
-1.1944001	ホ </s>	0
-1.0790303	ズ </s>	0
-1.2713994	コ </s>	0
-1.5555773	ゥ </s>	0
-2.4636006	ダ </s>	0
-1.6242383	サ </s>	0
-1.3374552	ェ </s>	0
-1.0546511	ﾖ </s>	0
-1.6609001	シ </s>	0
-1.5331243	ノ </s>	0
-1.8165488	マ </s>	0
-2.2739654	内 </s>	0
-1.4411798	り </s>	0
-1.9418681	さ </s>	0
-1.6100411	ィ </s>	0
-1.6474009	ヮ </s>	0
-1.18939	ル </s>	0
-1.3553064	ナ </s>	0
-1.2387393	ヤ </s>	0
-1.7458907	ュ </s>	0
-1.5421882	キ </s>	0
-1.6893239	チ </s>	0
-1.2273129	ロ </s>	0
-1.0066284	ン </s>	0
-1.7686982	ベ </s>	0
-0.9849589	ム </s>	0
-1.3833573	ラ </s>	0
-1.7307916	モ </s>	0
-1.5880948	リ </s>	0
-1.5590805	ッ </s>	0
-1.3258394	ハ </s>	0
-1.4347836	海 </s>	0
-1.1706269	こ </s>	0
-0.7229273	ろ </s>	0
-1.8071245	ケ </s>	0
-1.4805748	雪 </s>	0
-1.5494244	か </s>	0
-0.6406341	ん </s>	0
-0.6046172	菜 </s>	0
-1.6968964	レ </s>	0
-1.6352745	テ </s>	0
-1.3798829	ジ </s>	0
-1.295573	ゴ </s>	0
-1.4763163	ギ </s>	0
-1.2055421	ス </s>	0
-1.7037868	匕 </s>	0
-1.5497025	ニ </s>	0
-1.4105984	ト </s>	0
-1.6612302	デ </s>	0
-1.3678011	グ </s>	0
-1.1877176	ク </s>	0
-1.5883443	セ </s>	0
-1.1734779	ブ </s>	0
-2.0754335	野 </s>	0
-2.0725226	あ </s>	0
-1.5380998	す </s>	0
-1.4032209	ヅ </s>	0
-2.3254418	田 </s>	0
-2.5501564	山 </s>	0
-1.2832531	よ </s>	0
-1.6666245	し </s>	0
-0.64295727	美 </s>	0
-1.9484653	倉 </s>	0
-2.204592	橋 </s>	0
-0.7624054	お </s>	0
-1.4093236	い </s>	0
-1.6743141	ゲ </s>	0
-2.1670513	ソ </s>	0
-1.7806393	バ </s>	0
-1.7125955	み </s>	0
-1.0942398	ず </s>	0
-1.3348905	き </s>	0
-1.5050188	早 </s>	0
-2.1419535	ふ </s>	0
-1.2907416	ザ </s>	0
-1.1567206	ド </s>	0
-1.9211711	ゆ </s>	0
-0.23343493	子 </s>	0
-1.0152291	ネ </s>	0
-1.8798897	永 </s>	0
-2.4452941	井 </s>	0
-1.7886635	た </s>	0
-2.0682466	け </s>	0
-2.1014395	ひ </s>	0
-0.5036272	樹 </s>	0
-2.3856232	村 </s>	0
-1.2454268	の </s>	0
-1.6081268	も </s>	0
-1.5222276	と </s>	0
-1.0456167	宇 </s>	0
-0.6514712	都 </s>	0
-1.1705863	え </s>	0
-0.4917947	杏 </s>	0
-1.5030453	メ </s>	0
-2.0741563	嶋 </s>	0
-1.4642957	武 </s>	0
-0.57857394	び </s>	0
-1.3490349	ビ </s>	0
-2.4369817	口 </s>	0
-1.305295	く </s>	0
-1.6415415	松 </s>	0
-1.007227	る </s>	0
-1.6226226	金 </s>	0
-1.3875678	紫 </s>	0
-1.1570984	う </s>	0
-1.3108816	な </s>	0
-1.0945667	や </s>	0
-1.9703685	木 </s>	0
-1.1370095	ボ </s>	0
-2.438455	谷 </s>	0
-1.6795135	は </s>	0
-1.4627585	つ </s>	0
-2.1698728	林 </s>	0
-1.8151963	ち </s>	0
-1.808432	中 </s>	0
-1.0417695	じ </s>	0
-0.96546936	ヌ </s>	0
-1.524007	ゼ </s>	0
-1.0065686	桜 </s>	0
-0.57295775	ね </s>	0
-2.206693	藤 </s>	0
-1.0503087	め </s>	0
-0.9106206	ぐ </s>	0
-1.3629516	大 </s>	0
-0.43880755	一 </s>	0
-1.8941392	瀬 </s>	0
-1.0603861	旭 </s>	0
-0.27253944	世 </s>	0
-1.5254167	羽 </s>	0
-0.13636935	也 </s>	0
-2.1287954	上 </s>	0
-1.8926301	ま </s>	0
-0.9329322	ど </s>	0
-0.9077917	平 </s>	0
-2.0052302	尾 </s>	0
-2.5306916	崎 </s>	0
-1.0363601	市 </s>	0
-2.6156936	川 </s>	0
-1.7877679	元 </s>	0
-1.4874175	久 </s>	0
-1.3733203	保 </s>	0
-1.783919	そ </s>	0
-2.4704947	岡 </s>	0
-0.2402664	ヲ </s>	0
-0.657936	ぶ </s>	0
-1.8955458	城 </s>	0
-0.75366294	三 </s>	0
-2.4693344	沢 </s>	0
-1.1064439	南 </s>	0
-0.91753745	知 </s>	0
-0.9710597	花 </s>	0
-1.0617846	士 </s>	0
-1.110586	吉 </s>	0
-1.3597426	づ </s>	0
-1.5520234	鈴 </s>	0
-1.8611183	石 </s>	0
-0.9208236	加 </s>	0
-1.922361	賀 </s>	0
-0.57234854	代 </s>	0
-1.5688143	安 </s>	0
-1.2695482	阪 </s>	0
-1.4678258	月 </s>	0
-1.5716236	せ </s>	0
-1.4671097	れ </s>	0
-1.3269136	京 </s>	0
-0.8170444	生 </s>	0
-1.5115676	所 </s>	0
-0.71697485	進 </s>	0
-2.333144	本 </s>	0
-1.5187688	水 </s>	0
-1.8372523	東 </s>	0
-1.7445186	合 </s>	0
-1.4762192	玉 </s>	0
-1.3875678	鹿 </s>	0
-1.1723796	秋 </s>	0
-1.7396894	竹 </s>	0
-1.8796742	て </s>	0
-0.88866305	和 </s>	0
-1.0194197	ー </s>	0
-0.7243291	乃 </s>	0
-1.8018159	屋 </s>	0
-1.5507454	柴 </s>	0
-1.9050705	ピ </s>	0
-2.1313288	見 </s>	0
-2.1013775	西 </s>	0
-0.92507225	利 </s>	0
-1.4411495	龍 </s>	0
-1.0603861	入 </s>	0
-0.91029954	江 </s>	0
-1.0456167	姫 </s>	0
-0.60357714	ぎ </s>	0
-1.0232707	有 </s>	0
-1.546834	伊 </s>	0
-0.9618083	D </s>	0
-1.3406599	照 </s>	0
-0.8010881	愛 </s>	0
-1.5507454	風 </s>	0
-0.8417443	む </s>	0
-1.5285826	清 </s>	0
-1.0603861	ぢ </s>	0
-1.3047009	わ </s>	0
-1.2421557	真 </s>	0
-0.8652414	豊 </s>	0
-0.75953805	ら </s>	0
-1.8916595	関 </s>	0
-1.2695482	犬 </s>	0
-1.005434	綾 </s>	0
-1.1466882	門 </s>	0
-1.7360264	浜 </s>	0
-0.98801804	茂 </s>	0
-1.5123949	駒 </s>	0
-1.0717771	那 </s>	0
-1.7070292	出 </s>	0
-0.38698196	穂 </s>	0
-1.2327662	歌 </s>	0
-0.2834614	香 </s>	0
-2.1376855	下 </s>	0
-0.16905704	人 </s>	0
-0.54275674	覧 </s>	0
-0.6082008	枝 </s>	0
-0.84006184	悠 </s>	0
-0.4088984	斗 </s>	0
-0.40618452	二 </s>	0
-1.0404847	ほ </s>	0
-0.5647337	貴 </s>	0
-1.296505	佐 </s>	0
-1.3824819	徳 </s>	0
-1.4792593	七 </s>	0
-1.5005077	若 </s>	0
-1.2387867	げ </s>	0
-1.4361521	矢 </s>	0
-1.6682793	形 </s>	0
-1.1594536	広 </s>	0
-1.2014151	に </s>	0
-0.70825946	夏 </s>	0
-0.646284	重 </s>	0
-1.1779175	ぼ </s>	0
-1.1161081	葉 </s>	0
-0.86877716	ぬ </s>	0
-1.3037741	馬 </s>	0
-1.7694066	場 </s>	0
-1.5847989	ヘ </s>	0
-1.6870015	日 </s>	0
-1.5393034	が </s>	0
-1.6849003	嶺 </s>	0
-1.2327662	牛 </s>	0
-1.8765072	泉 </s>	0
-1.5417669	郷 </s>	0
-0.6252355	ご </s>	0
-0.19226296	恵 </s>	0
-1.061896	留 </s>	0
-1.3698524	草 </s>	0
-0.6276276	望 </s>	0
-0.9037077	成 </s>	0
-1.9157554	だ </s>	0
-0.6404831	優 </s>	0
-0.43442726	映 </s>	0
-1.2695482	四 </s>	0
-0.4480145	浩 </s>	0
-0.9618083	恩 </s>	0
-1.9722748	垣 </s>	0
-1.5128427	五 </s>	0
-1.5177844	嵐 </s>	0
-0.6399956	衛 </s>	0
-0.30071706	を </s>	0
-1.8646879	間 </s>	0
-0.81378204	剣 </s>	0
-1.0608429	梨 </s>	0
-0.04535548	郎 </s>	0
-1.2081021	丸 </s>	0
-1.7190883	鳥 </s>	0
-0.38809106	太 </s>	0
-0.690799	佳 </s>	0
-1.2787292	星 </s>	0
-1.0625851	ヴ </s>	0
-0.9052143	国 </s>	0
-1.1755074	ざ </s>	0
-0.71582067	ポ </s>	0
-0.771288	織 </s>	0
-1.2333478	智 </s>	0
-1.4939301	椋 </s>	0
-1.9223841	右 </s>	0
-0.21826407	治 </s>	0
-0.8649839	華 </s>	0
-1.5286493	我 </s>	0
-0.40672523	志 </s>	0
-1.1479086	朝 </s>	0
-1.1982952	味 </s>	0
-1.544924	麻 </s>	0
-1.636022	地 </s>	0
-1.3335569	多 </s>	0
-0.9618083	館 </s>	0
-1.3698524	逢 </s>	0
-0.8652414	昌 </s>	0
-0.0561117	夫 </s>	0
-0.57097876	魚 </s>	0
-1.6969633	パ </s>	0
-1.6867161	園 </s>	0
-1.4792593	椿 </s>	0
-0.7166078	司 </s>	0
-0.9095742	嘉 </s>	0
-0.8065908	音 </s>	0
-1.3004785	祐 </s>	0
-1.0671026	梅 </s>	0
-1.6308515	路 </s>	0
-0.7757473	春 </s>	0
-1.3004785	近 </s>	0
-0.62986803	幸 </s>	0
-0.2720277	博 </s>	0
-0.10675422	男 </s>	0
-0.6707254	紗 </s>	0
-1.6874917	達 </s>	0
-0.42259684	明 </s>	0
-0.7887998	ば </s>	0
-1.1881188	万 </s>	0
-1.3406599	遠 </s>	0
-1.5176588	勢 </s>	0
-1.3256953	良 </s>	0
-0.9068662	で </s>	0
-0.59953463	女 </s>	0
-0.7247596	晴 </s>	0
-1.3254286	咲 </s>	0
-0.9381225	守 </s>	0
-0.9618083	尋 </s>	0
-0.9618083	氏 </s>	0
-0.9299863	八 </s>	0
-0.7674433	巳 </s>	0
-0.68768257	裕 </s>	0
-0.7708508	布 </s>	0
-0.3763073	理 </s>	0
-0.8122996	芳 </s>	0
-0.5509282	児 </s>	0
-0.43442726	憲 </s>	0
-1.2695482	茜 </s>	0
-1.2695482	住 </s>	0
-0.5576987	奈 </s>	0
-0.55987835	希 </s>	0
-1.2128682	道 </s>	0
-0.30091837	緒 </s>	0
-1.3239385	方 </s>	0
-0.81378204	謝 </s>	0
-0.25371465	歩 </s>	0
-0.43442726	崇 </s>	0
-0.54275674	帥 </s>	0
-1.0603861	魔 </s>	0
-0.97392213	王 </s>	0
-0.9969757	里 </s>	0
-0.96933496	夢 </s>	0
-1.1452812	好 </s>	0
-0.7708508	仙 </s>	0
-1.2695482	鷹 </s>	0
-0.7245631	洋 </s>	0
-0.84006184	義 </s>	0
-0.7519926	冬 </s>	0
-1.0603861	流 </s>	0
-1.2327662	礼 </s>	0
-0.78870416	雅 </s>	0
-0.33452824	実 </s>	0
-1.0695201	波 </s>	0
-0.58768034	光 </s>	0
-0.8081095	秀 </s>	0
-0.6707532	伸 </s>	0
-0.6397171	英 </s>	0
-0.21206635	雄 </s>	0
-0.5509282	章 </s>	0
-0.6399956	邦 </s>	0
-1.1781504	峰 </s>	0
-1.1135689	正 </s>	0
-0.6236564	昭 </s>	0
-0.44909889	之 </s>	0
-0.10688568	助 </s>	0
-0.9618083	電 </s>	0
-0.8652414	心 </s>	0
-0.75473976	剛 </s>	0
-0.35116714	史 </s>	0
-0.81378204	麿 </s>	0
-0.54275674	偉 </s>	0
-0.4339763	昇 </s>	0
-0.7975423	由 </s>	0
-0.81378204	欣 </s>	0
-1.3742993	飛 </s>	0
-0.54275674	蚊 </s>	0
-1.0456167	沙 </s>	0
-0.43442726	璃 </s>	0
-1.5403938	伯 </s>	0
-0.8652414	蓮 </s>	0
-1.5005077	狩 </s>	0
-1.0790957	作 </s>	0
-0.7519926	俊 </s>	0
-0.54275674	祈 </s>	0
-1.2282144	彩 </s>	0
-0.6399956	季 </s>	0
-1.1982952	楽 </s>	0
-0.81378204	逸 </s>	0
-0.6399956	ぱ </s>	0
-0.55215436	輝 </s>	0
-0.54275674	卓 </s>	0
-0.78795135	登 </s>	0
-0.9618083	律 </s>	0
-0.57097876	楓 </s>	0
-0.69560605	満 </s>	0
-0.981716	睦 </s>	0
-0.90380573	康 </s>	0
-1.2327662	汐 </s>	0
-0.5509282	忍 </s>	0
-0.9618083	悦 </s>	0
-1.4523783	葵 </s>	0
-0.09559437	彦 </s>	0
-1.1857077	寿 </s>	0
-1.302074	空 </s>	0
-0.30766457	絵 </s>	0
-0.5754924	仁 </s>	0
-0.6399956	盛 </s>	0
-1.5045903	陽 </s>	0
-0.25442976	栄 </s>	0
-1.0869857	琴 </s>	0
-0.97531545	べ </s>	0
-0.81378204	耶 </s>	0
-0.6399956	潤 </s>	0
-0.0318513	介 </s>	0
-0.7119004	澄 </s>	0
-1.1500916	忠 </s>	0
-0.40071166	弥 </s>	0
-1.2486147	慶 </s>	0
-0.8154939	文 </s>	0
-0.53902006	喜 </s>	0
-1.1500916	耕 </s>	0
-0.54275674	了 </s>	0
-0.9618083	護 </s>	0
-1.132858	プ </s>	0
-1.7835711	ぜ </s>	0
-0.9618083	A </s>	0
-0.49621254	勇 </s>	0
-0.27022365	紀 </s>	0
-1.3004785	瞳 </s>	0
-0.74829423	ぽ </s>	0
-0.7552785	玲 </s>	0
-1.0869857	涼 </s>	0
-0.15523769	輔 </s>	0
-0.81378204	ヂ </s>	0
-1.1054578	舞 </s>	0
-1.132444	起 </s>	0
-0.5509282	梢 </s>	0
-1.2048185	隆 </s>	0
-0.50879383	圭 </s>	0
-0.4339763	丈 </s>	0
-0.26602155	象 </s>	0
-0.8267167	啓 </s>	0
-0.81378204	丞 </s>	0
-1.3004785	渚 </s>	0
-1.132444	鳩 </s>	0
-0.90380573	藍 </s>	0
-1.3269136	竜 </s>	0
-0.54275674	族 </s>	0
-0.71519625	行 </s>	0
-0.26089865	ヱ </s>	0
-0.5509282	繁 </s>	0
-1.0603861	快 </s>	0
-1.0603861	周 </s>	0
-1.3004785	蘭 </s>	0
-0.9618083	陸 </s>	0
-0.5160475	央 </s>	0
-0.15523769	哉 </s>	0
-0.4088984	帆 </s>	0
-0.81378204	総 </s>	0
-0.9381225	碧 </s>	0
-0.6685975	珠 </s>	0
-0.54275674	格 </s>	0
-0.8267167	翠 </s>	0
-0.4339763	憂 </s>	0
-0.82140315	克 </s>	0
-1.2695482	湖 </s>	0
-0.54275674	億 </s>	0
-0.18379551	衣 </s>	0
-0.9618083	慎 </s>	0
-0.97392213	夕 </s>	0
-0.54275674	燦 </s>	0
-0.90380573	遥 </s>	0
-1.1881188	円 </s>	0
-0.32666984	未 </s>	0
-1.2846279	拓 </s>	0
-0.4088984	尚 </s>	0
-1.1500916	朱 </s>	0
-1.3765472	孝 </s>	0
-1.1099958	純 </s>	0
-0.54275674	禄 </s>	0
-0.5509282	修 </s>	0
-0.26602155	猛 </s>	0
-1.2327662	M </s>	0
-0.9618083	I </s>	0
-1.2048185	E </s>	0
-0.9482909	健 </s>	0
-0.7119004	静 </s>	0
-0.71519625	弘 </s>	0
-0.4088984	晃 </s>	0
-1.0603861	恭 </s>	0
-0.9381225	来 </s>	0
-0.35356265	次 </s>	0
-0.6399956	奏 </s>	0
-0.22237109	寧 </s>	0
-0.4339763	匡 </s>	0
-0.81378204	豆 </s>	0
-0.7708508	将 </s>	0
-0.43442726	鏡 </s>	0
-1.3698524	聖 </s>	0
-0.81378204	絢 </s>	0
-0.34238595	則 </s>	0
-0.54275674	瞬 </s>	0
-0.54275674	錠 </s>	0
-1.3269136	稀 </s>	0
-1.0603861	岳 </s>	0
-0.6242604	泰 </s>	0
-0.7708508	夜 </s>	0
-0.9618083	響 </s>	0
-0.5344935	果 </s>	0
-1.2486147	哲 </s>	0
-0.54275674	脈 </s>	0
-0.54275674	整 </s>	0
-0.4339763	琉 </s>	0
-0.5509282	気 </s>	0
-1.0953915	伝 </s>	0
-1.132444	物 </s>	0
-0.54275674	盟 </s>	0
-0.9381225	瑞 </s>	0
-0.34238595	朗 </s>	0
-0.22237109	嗣 </s>	0
-1.0671026	直 </s>	0
-0.981716	巨 </s>	0
-0.5509282	佑 </s>	0
-0.9618083	宙 </s>	0
-1.0603861	恒 </s>	0
-1.132444	萌 </s>	0
-0.6399956	郁 </s>	0
-0.19627716	充 </s>	0
-0.54275674	全 </s>	0
-1.2327662	猫 </s>	0
-1.1500916	誠 </s>	0
-1.2048185	敬 </s>	0
-0.90380573	信 </s>	0
-0.81378204	異 </s>	0
-1.132444	李 </s>	0
-0.50879383	薫 </s>	0
-1.0603861	壱 </s>	0
-1.0603861	遼 </s>	0
-0.54275674	馨 </s>	0
-0.34238595	悟 </s>	0
-0.54275674	耐 </s>	0
-0.34238595	己 </s>	0
-1.2623322	ぷ </s>	0
-0.26602155	T </s>	0
-0.9618083	字 </s>	0
-0.6399956	航 </s>	0
-0.54275674	弟 </s>	0
-1.0603861	恋 </s>	0
-0.54275674	貢 </s>	0
-0.5509282	徹 </s>	0
-0.54275674	卿 </s>	0
-0.81378204	爾 </s>	0
-1.132444	聡 </s>	0
-0.54275674	屯 </s>	0
-0.4917947	宏 </s>	0
-0.6399956	亮 </s>	0
-1.1881188	靖 </s>	0
-0.12056417	蔵 </s>	0
-0.81378204	是 </s>	0
-0.82140315	詩 </s>	0
-0.81378204	笑 </s>	0
-0.7114732	晶 </s>	0
-1.0603861	彰 </s>	0
-0.9618083	宵 </s>	0
-0.54275674	虫 </s>	0
-0.16220102	吾 </s>	0
-1.132444	六 </s>	0
-0.81378204	至 </s>	0
-0.54275674	勲 </s>	0
-0.54275674	蒔 </s>	0
-0.54275674	密 </s>	0
-0.81378204	継 </s>	0
-0.54275674	他 </s>	0
-0.81378204	喬 </s>	0
-0.26602155	造 </s>	0
-1.2695482	茶 </s>	0
-0.54275674	欧 </s>	0
-0.81378204	菓 </s>	0
-0.54275674	慧 </s>	0
-0.9618083	梓 </s>	0
-1.2846279	淳 </s>	0
-0.50879383	典 </s>	0
-0.81378204	紘 </s>	0
-0.54275674	醇 </s>	0
-0.81378204	寛 </s>	0
-1.0603861	唯 </s>	0
-0.81378204	幹 </s>	0
-0.81378204	速 </s>	0
-0.54275674	誉 </s>	0
-0.54275674	伍 </s>	0
-0.81378204	覚 </s>	0
-0.22237109	甫 </s>	0
-0.54275674	判 </s>	0
-0.54275674	肇 </s>	0
-0.54275674	声 </s>	0
-0.54275674	身 </s>	0
-0.54275674	年 </s>	0
-0.54275674	予 </s>	0
-0.9618083	寅 </s>	0
-0.54275674	狼 </s>	0
-0.54275674	允 </s>	0
-0.54275674	倫 </s>	0
-0.54275674	抄 </s>	0
-0.54275674	瑳 </s>	0
-0.54275674	承 </s>	0
-0.9618083	語 </s>	0
-0.54275674	瞭 </s>	0
-0.26602155	零 </s>	0
-0.54275674	諭 </s>	0
-0.54275674	策 </s>	0
-0.22237109	勉 </s>	0
-0.54275674	哨 </s>	0
-0.54275674	革 </s>	0
-0.54275674	駆 </s>	0
-0.54275674	累 </s>	0
-0.54275674	精 </s>	0
-0.54275674	諒 </s>	0
-0.54275674	汰 </s>	0
-0.22237109	顕 </s>	0
-0.9618083	要 </s>	0
-0.54275674	単 </s>	0
-0.81378204	記 </s>	0
-0.54275674	務 </s>	0
-0.54275674	揚 </s>	0
-0.54275674	雀 </s>	0
-0.54275674	稔 </s>	0
-0.54275674	V </s>	0
-0.54275674	稜 </s>	0
-0.54275674	眺 </s>	0
-0.26602155	操 </s>	0
-0.54275674	滋 </s>	0
-0.54275674	強 </s>	0
-0.54275674	峻 </s>	0
-0.54275674	暦 </s>	0
-0.54275674	詠 </s>	0
-0.54275674	娘 </s>	0
-0.54275674	範 </s>	0
-0.54275674	巧 </s>	0
-0.54275674	奨 </s>	0
-1.2675867	<s> ヵ	-2.9486272
-2.4105716	ヵ ヵ	-1.3571306
-1.1141028	ワ ヵ	-2.1154456
-1.4023479	タ ヵ	-2.506423
-1.501118	ァ ヵ	-1.988585
-1.5962136	ォ ヵ	-2.3386245
-1.5375319	ミ ヵ	-1.9760959
-2.095712	ガ ヵ	-0.8527483
-3.046347	ホ ヵ	-1.8950201
-1.629229	ズ ヵ	-1.6982749
-2.7922704	コ ヵ	-0.37871152
-1.9554677	ゥ ヵ	-1.7031999
-1.7016846	ダ ヵ	-1.666416
-1.520274	サ ヵ	-1.9752913
-2.2870443	ェ ヵ	-1.5119005
-1.8484483	ﾖ ヵ	-2.5044146
-1.5602474	シ ヵ	-2.0149841
-1.7628621	ノ ヵ	-1.7345513
-1.6729733	マ ヵ	-1.8357302
-1.6214005	ィ ヵ	-1.9982685
-2.5839632	ヮ ヵ	-2.7899358
-1.3112308	ル ヵ	-2.3574014
-1.4739972	ナ ヵ	-2.3155694
-1.8032744	ヤ ヵ	-1.726482
-1.3714921	ュ ヵ	-2.3310595
-1.6615525	キ ヵ	-1.7085601
-1.3559997	チ ヵ	-2.0065103
-1.981948	ロ ヵ	-1.5608494
-1.8335108	ン ヵ	-1.5273832
-1.916789	ベ ヵ	-0.9761928
-2.7306209	ム ヵ	-2.6763299
-1.953136	ラ ヵ	-2.16781
-1.2423851	モ ヵ	-2.4100113
-1.4177372	リ ヵ	-2.0093575
-1.260162	ッ ヵ	-1.7873802
-2.046555	海 ヵ	-0.27613747
-2.1539354	ケ ヵ	-0.6493835
-2.6327004	レ ヵ	-1.8722429
-2.0378346	ジ ヵ	-1.6521983
-1.7983664	ギ ヵ	-1.0198767
-1.2415395	ス ヵ	-1.7249341
-1.2621946	匕 ヵ	-2.004248
-2.252833	ニ ヵ	-0.8095116
-1.4343956	ト ヵ	-1.5811721
-2.040551	デ ヵ	-1.181477
-2.407446	グ ヵ	-1.8482047
-2.061663	ク ヵ	-1.9427863
-2.2909741	セ ヵ	-0.69947225
-1.5931257	ブ ヵ	-1.9226525
-2.880237	野 ヵ	-0.30584386
-1.0935025	ヅ ヵ	-1.5447172
-2.5965176	田 ヵ	-0.34592682
-3.1818228	山 ヵ	-0.27613747
-2.4984405	美 ヵ	-0.2138478
-2.6351686	倉 ヵ	-0.27613747
-2.7628982	橋 ヵ	-0.23542082
-2.3431876	ゲ ヵ	-0.4258176
-2.8107975	ソ ヵ	-2.6763299
-1.9610938	バ ヵ	-0.7371565
-3.1192772	島 ヵ	-0.27613747
-1.4573543	ド ヵ	-1.977198
-2.1665967	ネ ヵ	-1.1507162
-2.660131	永 ヵ	-0.27613747
-2.922851	井 ヵ	-0.2138478
-2.202651	樹 ヵ	-0.27613747
-2.5231023	村 ヵ	-0.23452686
-2.4796398	メ ヵ	-1.8950201
-2.2123904	嶋 ヵ	-0.30584386
-2.9896462	口 ヵ	-0.27613747
-2.926507	原 ヵ	-0.23363474
-2.6570642	木 ヵ	-0.24387686
-2.2208142	ボ ヵ	-0.635932
-2.6361554	谷 ヵ	-0.24387686
-2.7077076	林 ヵ	-0.2138478
-2.0759225	河 ヵ	-0.27613747
-2.2553368	中 ヵ	-0.23452686
-1.7747564	ヌ ヵ	-2.1631334
-2.235117	藤 ヵ	-0.33043367
-2.4524674	瀬 ヵ	-0.27613747
-2.4235232	尾 ヵ	-0.23363474
-3.0955424	崎 ヵ	-0.24387686
-2.9676943	川 ヵ	-0.36035958
-2.7423224	塚 ヵ	-0.27613747
-2.309849	城 ヵ	-0.23363474
-2.3650558	沢 ヵ	-0.25436634
-2.481466	浦 ヵ	-0.23542082
-1.794214	月 ヵ	-0.22926402
-1.883349	科 ヵ	-0.27613747
-3.1894543	本 ヵ	-0.2138478
-2.1212215	津 ヵ	-0.24524774
-1.9834738	仲 ヵ	-0.23542082
-2.3162458	ー ヵ	-0.24524774
-2.7452655	坂 ヵ	-0.27613747
-2.506435	越 ヵ	-0.27613747
-2.4797318	屋 ヵ	-0.27613747
-2.1965039	ピ ヵ	-0.2138478
-2.0631256	愛 ヵ	-0.2138478
-1.4242669	風 ヵ	-0.27613747
-2.0993433	矢 ヵ	-0.27613747
-2.4391456	葉 ヵ	-0.2138478
-1.9585828	向 ヵ	-0.27613747
-2.1595056	条 ヵ	-0.27613747
-2.5411994	間 ヵ	-0.2138478
-2.0274196	智 ヵ	-0.36035958
-2.374999	杉 ヵ	-0.27613747
-2.0526564	端 ヵ	-0.4572696
-1.7859075	念 ヵ	-0.23542082
-2.0382557	幡 ヵ	-0.2138478
-2.2528126	咲 ヵ	-0.27613747
-1.5621161	羅 ヵ	-0.2138478
-1.9151474	正 ヵ	-0.27613747
-1.1535331	童 ヵ	-0.4572696
-0.5689898	廼 ヵ	-0.36035958
-1.5293331	弘 ヵ	-0.27613747
-1.0343552	壁 ヵ	-0.2138478
-0.5689898	菌 ヵ	-0.2138478
-0.5689898	膳 ヵ	-0.2138478
-0.5689898	数 ヵ	-0.27613747
-2.1591256	<s> ワ	-2.7236981
-1.8030725	ヵ ワ	-2.5017095
-2.000226	ワ ワ	-1.4266856
-1.8514887	タ ワ	-1.4134381
-1.5915751	ァ ワ	-1.9401431
-2.2757795	ォ ワ	-0.51752025
-1.7470046	ミ ワ	-1.3618349
-1.5228671	ガ ワ	-1.8391973
-2.4144142	ホ ワ	-0.4572696
-2.6143315	ズ ワ	-0.48828578
-3.2981572	コ ワ	-0.24387686
-2.4445322	ゥ ワ	-1.3284532
-1.7538303	ダ ワ	-1.5644796
-1.51004	サ ワ	-1.996519
-2.806787	ェ ワ	-0.6738882
-2.9778607	ﾖ ワ	-0.27613747
-2.094892	シ ワ	-1.970043
-1.9042574	ノ ワ	-1.2607267
-2.2785072	マ ワ	-1.5400549
-1.9248402	ィ ワ	-2.491898
-3.1836524	ル ワ	-0.2138478
-1.5797743	ナ ワ	-2.2191975
-2.116451	ヤ ワ	-0.6666631
-3.4426496	ュ ワ	-0.27613747
-1.6643289	キ ワ	-1.5400549
-2.3918626	チ ワ	-1.1562396
-2.3805802	ロ ワ	-0.66369104
-2.4418712	ン ワ	-0.4313934
-1.9525837	ベ ワ	-0.8802213
-2.8490195	ム ワ	-0.27613747
-2.014271	ラ ワ	-1.4303974
-1.3284595	モ ワ	-1.9314859
-2.7172766	リ ワ	-0.8583089
-2.7105203	ッ ワ	-0.7271448
-2.1901133	ケ ワ	-0.57031894
-2.0566652	ジ ワ	-2.6188393
-1.9114206	ギ ワ	-0.5394509
-2.4833052	ニ ワ	-1.2332149
-1.4503886	ト ワ	-1.8220406
-2.561678	デ ワ	-0.27613747
-2.493347	グ ワ	-0.27613747
-3.040383	ク ワ	-2.7042603
-2.3148375	セ ワ	-0.5816121
-2.5111096	ブ ワ	-0.5364508
-3.7732086	田 ワ	-0.2138478
-2.4477055	ゲ ワ	-0.4572696
-1.9856561	バ ワ	-0.62720406
-0.75086534	ザ ワ	-2.0681791
-2.4814487	ド ワ	-0.23542082
-2.398107	ネ ワ	-0.64318776
-3.4084487	原 ワ	-0.27613747
-2.3321996	ボ ワ	-0.55228245
-2.8463187	瀬 ワ	-0.2138478
-3.421999	川 ワ	-0.27613747
-2.3426757	名 ワ	-0.2138478
-2.9405684	ー ワ	-0.2138478
-2.307424	浜 ワ	-0.27613747
-2.2406123	須 ワ	-0.27613747
-2.4231799	馬 ワ	-0.2138478
-1.9904155	橘 ワ	-0.27613747
-2.093784	パ ワ	-0.23542082
-1.2783927	<s> タ	-3.0079563
-2.2754362	ヵ タ	-1.914474
-1.1634841	ワ タ	-1.9026092
-1.8496468	タ タ	-1.8141873
-3.369738	ァ タ	-0.23542082
-1.9655931	ォ タ	-1.670264
-2.3886998	ミ タ	-1.3077161
-1.9417558	ガ タ	-1.4514405
-1.321689	ホ タ	-1.9196676
-2.1314595	ズ タ	-1.9686905
-1.4671054	コ タ	-1.3930213
-1.315256	ゥ タ	-2.147377
-1.7353663	ダ タ	-1.9653052
-2.7621243	サ タ	-1.5571175
-2.7790663	ェ タ	-0.9481841
-2.4635613	ﾖ タ	-1.7478007
-1.9158317	シ タ	-1.9245299
-1.9004116	ノ タ	-1.6391132
-2.1773314	マ タ	-1.6403254
-2.286295	内 タ	-0.22666262
-1.9448256	ィ タ	-1.8682075
-1.2875469	ヮ タ	-1.9569566
-2.174693	ル タ	-1.4931796
-2.5178432	ナ タ	-2.2214196
-2.1072285	ヤ タ	-1.1531867
-1.5094358	ュ タ	-2.0657957
-2.0071867	キ タ	-1.9402039
-2.3820496	チ タ	-1.6283131
-1.9965098	ロ タ	-1.4599838
-1.5448031	ン タ	-2.0811644
-1.9358895	ベ タ	-1.144847
-1.9584823	ラ タ	-1.843163
-3.1343527	モ タ	-1.9541992
-2.2836494	リ タ	-1.6176466
-1.2615485	ッ タ	-1.3765353
-3.218238	ハ タ	-2.7103653
-1.9985739	ケ タ	-1.1357727
-2.3458495	ジ タ	-1.260857
-2.288279	ゴ タ	-0.23542082
-1.8064672	ギ タ	-1.1863384
-1.8296695	ス タ	-1.5516392
-2.461406	ニ タ	-1.014333
-2.4685593	ト タ	-1.5490324
-2.0626156	デ タ	-1.150992
-2.0705812	ク タ	-1.1394168
-2.3037896	セ タ	-0.80711246
-2.4670062	ブ タ	-1.9037668
-2.7488108	野 タ	-0.2138478
-2.7746446	田 タ	-0.24204962
-2.807613	山 タ	-0.27613747
-2.8344526	橋 タ	-0.2138478
-1.9374868	ゲ タ	-0.47122943
-1.6749682	バ タ	-1.6705321
-2.8171687	島 タ	-0.2138478
-2.3735728	ネ タ	-0.5421677
-2.7280402	永 タ	-0.27613747
-2.6294127	井 タ	-0.24023263
-2.7082822	村 タ	-0.24387686
-2.4972997	メ タ	-0.27613747
-2.9617405	原 タ	-0.23363474
-3.0350049	木 タ	-0.23542082
-2.2778318	ボ タ	-1.2906221
-2.7743397	林 タ	-0.4572696
-2.5858924	藤 タ	-0.23945774
-2.3702638	大 タ	-0.27613747
-2.0846684	新 タ	-0.2138478
-2.7926192	上 タ	-0.2138478
-3.1687322	崎 タ	-0.27613747
-2.688056	川 タ	-0.23945774
-2.796846	部 タ	-0.27613747
-2.5493968	浦 タ	-0.27613747
-2.0119705	相 タ	-0.27613747
-2.586257	本 タ	-0.33043367
-2.4137669	東 タ	-0.2138478
-1.8017527	和 タ	-0.2138478
-1.7180688	ー タ	-0.44482008
-1.9514289	柴 タ	-0.27613747
-2.6439643	江 タ	-0.27613747
-1.9811392	門 タ	-0.2138478
-1.9747832	茂 タ	-0.23542082
-1.7210184	富 タ	-0.4572696
-2.0661464	パ タ	-0.2138478
-2.155465	波 タ	-0.27613747
-1.39299	将 タ	-0.23542082
-1.5420742	果 タ	-0.36035958
-1.4438672	柊 タ	-0.27613747
-0.5705625	脱 タ	-0.27613747
-1.4607875	<s> ァ	-2.6894493
-1.630228	ヵ ァ	-1.5798808
-1.9804953	ワ ァ	-1.7638055
-1.8464069	タ ァ	-1.7404149
-1.6174985	ァ ァ	-1.69501
-2.0317206	ォ ァ	-1.0151789
-1.678966	ミ ァ	-1.632556
-1.9219021	ガ ァ	-0.99715525
-1.9156418	ズ ァ	-1.1307628
-2.7797854	コ ァ	-0.9684035
-2.2920544	ゥ ァ	-1.4048954
-1.7498004	ダ ァ	-1.8874114
-1.507558	サ ァ	-1.612486
-2.5644598	ェ ァ	-0.8293398
-2.2459016	ﾖ ァ	-1.6304559
-1.9721618	シ ァ	-1.5531186
-1.5672374	ノ ァ	-1.617638
-1.6461043	マ ァ	-1.8339682
-1.8589083	ィ ァ	-1.6749903
-1.0929916	ヮ ァ	-1.2639829
-1.3598605	ル ァ	-1.7245528
-3.2064717	ナ ァ	-0.24524774
-2.0913765	ヤ ァ	-0.991669
-1.5081031	ュ ァ	-2.24073
-1.6338629	キ ァ	-1.6754549
-1.4088581	チ ァ	-1.7774549
-1.9750733	ロ ァ	-1.1390909
-1.948091	ン ァ	-0.40731183
-1.90784	ベ ァ	-1.0774589
-2.0002918	ラ ァ	-1.8630457
-1.2963276	モ ァ	-2.0356944
-1.5854214	リ ァ	-1.5810908
-2.189775	ッ ァ	-1.148918
-2.3590374	海 ァ	-0.27613747
-2.1448956	ケ ァ	-1.0315361
-1.7612607	雪 ァ	-0.27613747
-2.0957036	菜 ァ	-0.23542082
-1.2434783	レ ァ	-2.110552
-2.675655	テ ァ	-0.23542082
-2.033012	ジ ァ	-0.70079166
-2.2460134	ゴ ァ	-0.27613747
-1.8878872	ギ ァ	-0.94971323
-1.9435784	ス ァ	-1.3770626
-3.1931217	匕 ァ	-0.2138478
-1.9527491	ニ ァ	-0.8908502
-1.4469801	ト ァ	-1.5569199
-2.030264	デ ァ	-0.95416296
-2.3874054	グ ァ	-0.27613747
-2.5221639	ク ァ	-0.34215772
-1.3337134	セ ァ	-1.0013806
-2.3985062	ブ ァ	-1.9196676
-2.2365518	野 ァ	-0.38679394
-2.4097044	田 ァ	-0.4365273
-2.899502	山 ァ	-0.27613747
-2.6048815	倉 ァ	-0.2138478
-2.7320957	橋 ァ	-0.36035958
-1.9089875	ゲ ァ	-1.1704795
-1.9548544	バ ァ	-0.84934264
-2.768488	島 ァ	-0.27613747
-1.579177	ド ァ	-0.2680553
-2.3332963	ネ ァ	-0.5909909
-1.8708749	福 ァ	-0.23542082
-3.1794872	井 ァ	-0.27613747
-2.829081	村 ァ	-0.2138478
-2.101587	メ ァ	-0.6033976
-2.2007842	嶋 ァ	-0.34215772
-0.6591022	ビ ァ	-1.4911891
-2.4439893	口 ァ	-0.24387686
-2.5893567	原 ァ	-0.24387686
-2.1334212	木 ァ	-0.31796476
-2.1957	ボ ァ	-0.7072727
-2.7884831	谷 ァ	-0.27613747
-2.6788015	林 ァ	-0.27613747
-2.0764997	中 ァ	-0.27613747
-2.2253456	藤 ァ	-0.22926402
-2.2078536	瀬 ァ	-0.22926402
-2.2123582	上 ァ	-0.24387686
-2.754073	尾 ァ	-0.27613747
-2.7340467	崎 ァ	-0.23363474
-2.4587402	川 ァ	-0.23945774
-2.25729	保 ァ	-0.27613747
-2.705555	部 ァ	-0.27613747
-2.1229692	城 ァ	-0.2512524
-2.6392198	沢 ァ	-0.24524774
-2.0228446	南 ァ	-0.27613747
-2.452057	浦 ァ	-0.2138478
-2.1313186	月 ァ	-0.22666262
-2.7132688	本 ァ	-0.2512524
-1.9230189	水 ァ	-0.37279063
-2.3112528	堀 ァ	-0.2138478
-1.9493463	ー ァ	-0.23422924
-2.715479	坂 ァ	-0.2138478
-2.144801	戸 ァ	-0.23363474
-2.0750766	屋 ァ	-0.23363474
-1.6682432	ピ ァ	-0.23363474
-1.6857898	龍 ァ	-0.27613747
-2.5500436	江 ァ	-0.27613747
-1.4267459	犬 ァ	-0.2138478
-2.182834	浜 ァ	-0.27613747
-2.6539521	下 ァ	-0.27613747
-1.7402457	重 ァ	-0.27613747
-2.4121816	葉 ァ	-0.27613747
-1.2932184	ヘ ァ	-0.23363474
-2.1470053	日 ァ	-0.27613747
-2.355143	泉 ァ	-0.27613747
-2.5146515	間 ァ	-0.27613747
-2.1852145	尻 ァ	-0.27613747
-1.7700117	星 ァ	-0.22666262
-0.6509921	ヴ ァ	-0.5893649
-1.8029476	椋 ァ	-0.27613747
-1.1506246	影 ァ	-0.2138478
-2.0346267	端 ァ	-0.27613747
-2.063603	音 ァ	-0.2138478
-1.8564484	室 ァ	-0.23542082
-1.4261967	咲 ァ	-0.37786448
-1.7848024	理 ァ	-0.27613747
-2.3982043	里 ァ	-0.27613747
-1.0009665	羅 ァ	-0.34215772
-1.7566757	雅 ァ	-0.27613747
-1.3829948	楓 ァ	-0.2138478
-1.6722804	満 ァ	-0.2138478
-1.4170167	プ ァ	-0.22666262
-0.56823087	主 ァ	-0.2138478
-1.5159538	藍 ァ	-0.2138478
-1.3748485	M ァ	-0.27613747
-0.56823087	聞 ァ	-0.23542082
-0.56823087	乗 ァ	-0.2138478
-0.862606	群 ァ	-0.27613747
-1.2411722	李 ァ	-0.27613747
-1.0321429	洲 ァ	-0.27613747
-0.862606	定 ァ	-0.2138478
-1.0321429	黄 ァ	-0.27613747
-0.56823087	斧 ァ	-0.27613747
-1.0694511	<s> ォ	-3.1425638
-1.4345499	ヵ ォ	-1.4478837
-1.2185599	ワ ォ	-1.5586238
-1.633286	タ ォ	-1.988873
-1.5262004	ァ ォ	-2.3144298
-1.2153372	ォ ォ	-2.785679
-1.6147051	ミ ォ	-2.0871887
-1.9493289	ガ ォ	-1.4480971
-1.950117	ズ ォ	-2.0503585
-2.4597394	コ ォ	-0.25436634
-2.0145876	ゥ ォ	-0.90359646
-1.7533246	ダ ォ	-1.6130393
-1.5345792	サ ォ	-2.3235428
-1.412495	ェ ォ	-1.4203421
-2.9603345	ﾖ ォ	-1.8621033
-1.4505233	シ ォ	-1.8926921
-1.8599303	ノ ォ	-1.2281216
-1.5894549	マ ォ	-2.1900206
-2.9270535	内 ォ	-0.27613747
-1.5920266	ィ ォ	-1.6854817
-1.9953098	ヮ ォ	-0.57121295
-1.4343157	ル ォ	-2.3256524
-1.2949435	ナ ォ	-2.1359487
-2.016133	ヤ ォ	-1.380891
-1.5489336	ュ ォ	-1.9285613
-1.9790692	キ ォ	-2.0311353
-1.4726241	チ ォ	-1.9352173
-2.0047076	ロ ォ	-1.3881983
-2.432957	ン ォ	-1.4811797
-1.946732	ベ ォ	-0.81484663
-2.8280435	ム ォ	-0.27613747
-2.0703673	ラ ォ	-2.1353176
-1.3953915	モ ォ	-2.1896634
-1.490813	リ ォ	-2.1870098
-2.0391033	ッ ォ	-1.6317803
-2.0058742	ケ ォ	-1.7492275
-1.1024835	レ ォ	-1.7526987
-2.7529473	テ ォ	-0.27613747
-1.1911564	ジ ォ	-1.9509873
-1.8109745	ギ ォ	-0.6133186
-3.047598	ス ォ	-2.118135
-1.3576069	匕 ォ	-1.8969702
-2.2779348	ニ ォ	-1.3087093
-1.3753425	ト ォ	-1.7272068
-2.0752091	デ ォ	-1.6646305
-2.4786024	グ ォ	-0.2138478
-2.0755508	ク ォ	-2.6694572
-1.3065563	セ ォ	-1.6811198
-1.9965619	ブ ォ	-1.9796475
-3.103677	野 ォ	-0.23363474
-3.737478	田 ォ	-0.36035958
-1.5606173	ゲ ォ	-1.5436023
-1.855752	バ ォ	-0.5059553
-2.0153387	ネ ォ	-1.7521963
-1.1972468	メ ォ	-1.8854043
-2.5645792	ビ ォ	-0.27613747
-2.3126001	ボ ォ	-0.30531797
-3.259316	谷 ォ	-0.27613747
-2.153728	河 ォ	-0.27613747
-2.6117656	藤 ォ	-0.24524774
-2.8425753	上 ォ	-0.27613747
-2.0428777	市 ォ	-0.27613747
-2.5542886	元 ォ	-0.27613747
-2.419092	岩 ォ	-0.27613747
-3.2828789	沢 ォ	-0.2138478
-2.4269931	花 ォ	-0.27613747
-2.5395741	ー ォ	-0.4106181
-1.6830095	ピ ォ	-0.48828578
-1.5081717	ヴ ォ	-0.22666262
-1.871132	英 ォ	-0.27613747
-1.4302666	<s> ミ	-2.9286559
-1.6039186	ヵ ミ	-1.7645645
-1.9842623	ワ ミ	-1.6420962
-1.5935619	タ ミ	-1.7018411
-1.4898349	ァ ミ	-1.8301188
-1.699661	ォ ミ	-1.363896
-1.7583035	ミ ミ	-1.0519828
-1.927849	ガ ミ	-1.1861513
-1.1940842	ズ ミ	-1.758939
-1.4369423	コ ミ	-1.2448969
-1.3717644	ゥ ミ	-1.6141706
-1.7336453	ダ ミ	-1.776655
-1.5869737	サ ミ	-1.5229442
-1.1317568	ェ ミ	-1.7061127
-1.164522	ﾖ ミ	-2.238684
-1.6000832	シ ミ	-1.7006209
-1.8148469	ノ ミ	-1.6702178
-1.5874796	マ ミ	-1.679642
-2.44652	内 ミ	-0.24524774
-1.6668495	ィ ミ	-1.6965399
-1.021508	ヮ ミ	-2.3757238
-1.2171309	ル ミ	-2.4254334
-1.3299899	ナ ミ	-1.8897479
-1.8599416	ヤ ミ	-1.2220259
-1.3537569	ュ ミ	-2.3563638
-1.540683	キ ミ	-1.8156577
-2.2003856	チ ミ	-1.4843278
-1.8621447	ロ ミ	-1.13098
-1.9526087	ン ミ	-1.1743566
-1.9161866	ベ ミ	-0.893572
-1.3825082	ラ ミ	-1.7331839
-1.2553266	モ ミ	-2.2054577
-1.6081156	リ ミ	-1.3396109
-1.7694752	ッ ミ	-1.6937395
-1.3669016	ハ ミ	-1.8621033
-1.8642331	ケ ミ	-0.9063193
-1.2166486	レ ミ	-2.0927534
-1.9432956	ジ ミ	-0.49311215
-1.8923644	ギ ミ	-0.8542397
-1.080248	ス ミ	-2.1661456
-2.8231454	ニ ミ	-0.8149088
-1.3512127	ト ミ	-1.8148621
-1.8520814	デ ミ	-1.0467428
-1.9486598	グ ミ	-2.4303975
-1.1270313	ク ミ	-2.3857632
-2.290567	セ ミ	-0.65438855
-2.8792882	野 ミ	-0.27613747
-0.96171427	ヅ ミ	-2.8106086
-2.644676	田 ミ	-0.26294425
-2.6250281	山 ミ	-0.24023263
-2.4961011	美 ミ	-0.2138478
-2.6330824	倉 ミ	-0.2138478
-2.7607753	橋 ミ	-0.27613747
-3.2025814	い ミ	-0.2138478
-2.341561	ゲ ミ	-0.3672913
-1.960675	バ ミ	-0.7163836
-2.6128762	島 ミ	-0.27613747
-2.0929775	ザ ミ	-0.2138478
-1.9520414	ド ミ	-0.2138478
-2.1660273	ネ ミ	-0.7867375
-2.6091552	井 ミ	-0.2553022
-2.4286377	畑 ミ	-0.27613747
-2.4061842	村 ミ	-0.24456176
-2.9486666	の ミ	-0.27613747
-2.2094328	宮 ミ	-0.2138478
-2.5773869	森 ミ	-0.27613747
-1.144575	メ ミ	-2.1976323
-2.5970845	嶋 ミ	-0.2138478
-2.628839	口 ミ	-0.27613747
-2.3212595	松 ミ	-0.36035958
-2.478709	原 ミ	-0.23363474
-2.2291272	木 ミ	-0.22860287
-2.219094	ボ ミ	-0.53962314
-3.1303198	谷 ミ	-0.27613747
-2.5807097	中 ミ	-0.27613747
-1.7741431	ヌ ミ	-2.1275153
-2.1401951	ゼ ミ	-0.23542082
-2.2344584	藤 ミ	-0.2796354
-2.3427503	瀬 ミ	-0.24387686
-2.389223	上 ミ	-0.23363474
-2.4226155	尾 ミ	-0.23363474
-2.7474852	崎 ミ	-0.2138478
-2.4648309	川 ミ	-0.32197478
-2.2807736	保 ミ	-0.27613747
-3.0270264	岡 ミ	-0.23363474
-1.6711872	ゾ ミ	-2.102692
-1.9057451	手 ミ	-0.2138478
-2.3089643	城 ミ	-0.27613747
-2.4838755	沢 ミ	-0.27613747
-2.4794424	浦 ミ	-0.27613747
-2.5465074	石 ミ	-0.27613747
-2.60137	賀 ミ	-0.27613747
-2.5129523	月 ミ	-0.2138478
-2.2109385	生 ミ	-0.4572696
-1.8158514	名 ミ	-0.27613747
-2.8851724	本 ミ	-0.27613747
-2.2958422	水 ミ	-0.2138478
-2.4386392	根 ミ	-0.27613747
-2.118919	神 ミ	-0.23542082
-2.1595626	ー ミ	-0.22860287
-2.1566231	戸 ミ	-0.23363474
-2.2693024	辺 ミ	-0.2138478
-1.9221424	穂 ミ	-0.2138478
-2.6815562	下 ミ	-0.27613747
-2.0978594	矢 ミ	-0.27613747
-1.8891473	斐 ミ	-0.27613747
-2.437295	葉 ミ	-0.27613747
-1.9732591	辻 ミ	-0.27613747
-2.081973	園 ミ	-0.2138478
-2.171441	司 ミ	-0.27613747
-1.5218184	遠 ミ	-0.27613747
-2.2503471	家 ミ	-0.23542082
-2.426566	里 ミ	-0.27613747
-0.8640021	柱 ミ	-0.27613747
-1.9765773	峰 ミ	-0.27613747
-1.8219173	寿 ミ	-0.27613747
-0.8640021	箱 ミ	-0.27613747
-1.2445178	邑 ミ	-0.27613747
-1.0342072	黛 ミ	-0.2138478
-4.751771	<s> ガ	-0.27998677
-2.5310264	ヵ ガ	-2.2261543
-2.0044518	ワ ガ	-1.0805188
-1.9234738	タ ガ	-2.2561502
-2.4658017	ォ ガ	-2.7599103
-2.7720292	ミ ガ	-0.36035958
-1.9602504	ガ ガ	-0.4373036
-2.6556675	ズ ガ	-0.27613747
-3.3407829	コ ガ	-1.2048835
-2.2258265	ゥ ガ	-2.0535002
-1.8306915	ダ ガ	-1.3023677
-2.9906735	サ ガ	-1.7208172
-2.4400444	ェ ガ	-0.34215772
-2.253506	シ ガ	-0.8374808
-2.0386083	ノ ガ	-0.8722429
-2.4077158	マ ガ	-2.2454379
-1.9484475	ィ ガ	-2.200167
-2.5944235	ル ガ	-0.48828578
-1.5180199	ナ ガ	-2.1601164
-2.4327016	ヤ ガ	-2.397454
-2.2048533	キ ガ	-0.8552096
-2.3976266	チ ガ	-0.96241957
-2.398287	ロ ガ	-0.23363474
-1.9769578	ン ガ	-1.3588166
-1.9625151	ベ ガ	-0.5364508
-2.0757895	ラ ガ	-0.987513
-2.7247546	リ ガ	-0.57121295
-3.179369	ッ ガ	-0.24524774
-2.875117	ケ ガ	-2.5638328
-3.1950166	レ ガ	-0.27613747
-2.373662	ジ ガ	-0.23452686
-2.4297411	ギ ガ	-0.2138478
-2.6548257	ス ガ	-2.3148806
-2.8209038	匕 ガ	-1.2142032
-2.989082	ニ ガ	-2.402738
-2.869774	ト ガ	-0.8552096
-2.5976903	デ ガ	-0.27613747
-2.7074022	セ ガ	-2.5684998
-3.8401868	田 ガ	-0.27613747
-2.175955	バ ガ	-0.34215772
-2.8935916	ネ ガ	-0.2138478
-3.0447137	メ ガ	-0.27613747
-3.1818893	木 ガ	-0.2138478
-2.3669689	ボ ガ	-0.2138478
-2.4857373	一 ガ	-0.27613747
-1.903893	ー ガ	-0.25970766
-1.7652743	<s> ホ	-2.7983232
-1.5572641	ヵ ホ	-1.5064894
-2.0027566	ワ ホ	-1.1623999
-1.8521283	タ ホ	-1.1574787
-2.152432	ォ ホ	-0.42287478
-1.6475897	ミ ホ	-1.7017418
-2.1393838	ガ ホ	-0.5063467
-1.5483146	ズ ホ	-2.1650126
-3.3232274	コ ホ	-0.24456176
-2.4491434	ゥ ホ	-1.1941084
-1.7543367	ダ ホ	-1.2730371
-1.5616382	サ ホ	-2.0486352
-1.4576087	ェ ホ	-1.0222504
-2.9961238	ﾖ ホ	-1.9314859
-1.603464	シ ホ	-1.4595796
-1.9055967	ノ ホ	-1.1072531
-1.6628332	マ ホ	-1.5422032
-1.9479157	ィ ホ	-1.5843743
-2.5892882	ル ホ	-1.9945602
-1.426432	ナ ホ	-2.4986622
-2.0212855	ヤ ホ	-0.98390865
-1.693547	ュ ホ	-2.4938984
-1.6509558	キ ホ	-1.6559267
-1.4868395	チ ホ	-1.5364509
-2.194345	ロ ホ	-0.5390352
-1.8500973	ン ホ	-0.28005043
-1.9585152	ベ ホ	-0.6405474
-2.8710606	ム ホ	-0.27613747
-2.0160503	ラ ホ	-1.3766963
-1.6590872	リ ホ	-1.3538687
-2.0439615	ッ ホ	-1.7547551
-2.1961114	ケ ホ	-0.286859
-1.3393973	レ ホ	-1.9166621
-2.369479	ジ ホ	-1.1660368
-1.9144539	ギ ホ	-0.42700818
-3.1016924	ス ホ	-2.110482
-1.4455917	匕 ホ	-1.8821512
-2.9727814	ニ ホ	-0.3938229
-2.48626	ト ホ	-1.2392641
-2.5829253	デ ホ	-0.2582181
-2.5086098	グ ホ	-1.9196676
-2.5944571	ク ホ	-1.9525743
-2.1905897	セ ホ	-0.37912667
-2.527483	ブ ホ	-0.27613747
-1.5092685	ヅ ホ	-2.3023677
-2.4667761	ゲ ホ	-0.25436634
-1.9896647	バ ホ	-0.4057967
-2.406933	ネ ホ	-0.4208815
-3.0325809	メ ホ	-1.9486313
-2.3527253	ボ ホ	-0.2883349
-3.3905296	本 ホ	-0.27613747
-2.3783407	ー ホ	-0.23363474
-1.4449121	ヵ ズ	-2.2989464
-1.5526727	ァ ズ	-2.2680397
-1.6486131	ミ ズ	-1.8387505
-2.8852396	ガ ズ	-1.9458203
-1.178823	ホ ズ	-2.041601
-1.4131254	コ ズ	-2.024296
-3.366988	ゥ ズ	-0.2138478
-3.5347602	サ ズ	-1.9105879
-1.5276142	シ ズ	-2.0655334
-1.6362946	ィ ズ	-2.5093749
-2.818902	ル ズ	-0.23542082
-1.5335876	ナ ズ	-1.8338466
-1.269548	ヤ ズ	-1.9314859
-1.4989135	ュ ズ	-1.9890677
-1.6803521	キ ズ	-1.9486313
-1.5787159	チ ズ	-2.0233989
-2.164249	ン ズ	-1.4478995
-2.1902683	ム ズ	-0.5065249
-3.3611794	ラ ズ	-0.30584386
-1.635282	リ ズ	-1.9166621
-1.326161	ハ ズ	-1.9261106
-2.7768993	ん ズ	-0.27613747
-1.1454699	ス ズ	-2.2780337
-3.9493945	田 ズ	-0.27613747
-3.6721485	ま ズ	-0.2138478
-1.8425529	ー ズ	-0.35991237
-1.531204	<s> コ	-2.7772846
-1.6054478	ヵ コ	-1.7389226
-1.9146299	ワ コ	-1.6844548
-1.8084092	タ コ	-1.6596588
-1.5905658	ァ コ	-2.4484956
-2.044474	ォ コ	-1.08412
-1.6352779	ミ コ	-1.9056748
-2.1163385	ガ コ	-0.8267023
-2.406238	ホ コ	-2.5202274
-1.7636423	ズ コ	-1.6563519
-1.3384469	コ コ	-1.760637
-1.4699061	ゥ コ	-1.667845
-1.7524269	ダ コ	-1.7284774
-2.2868252	サ コ	-2.1906192
-1.3591343	ェ コ	-1.8180937
-1.7047377	ﾖ コ	-2.6747525
-2.0909834	シ コ	-1.4530952
-1.857789	ノ コ	-1.5361217
-1.5778341	マ コ	-1.6489393
-1.8815384	ィ コ	-1.8963978
-2.2699623	ル コ	-1.7587466
-2.2162375	ナ コ	-2.6277184
-1.8088884	ヤ コ	-1.5041595
-1.591229	ュ コ	-2.3825817
-1.6105015	キ コ	-1.7440525
-1.4718891	チ コ	-1.6704249
-1.9969878	ロ コ	-1.0935739
-1.8414737	ン コ	-1.4435225
-1.9365199	ベ コ	-0.8511331
-2.7930841	ム コ	-0.27613747
-2.009366	ラ コ	-1.7054658
-1.3276968	モ コ	-2.5876033
-1.5871396	リ コ	-1.7886224
-1.7742622	ッ コ	-1.8432901
-1.3830035	ハ コ	-2.0947592
-2.1738737	ケ コ	-0.56339914
-3.114589	レ コ	-0.23542082
-2.7319767	テ コ	-0.27613747
-2.1722994	ジ コ	-1.132473
-1.903104	ギ コ	-0.8060804
-2.0328429	ス コ	-1.7903626
-1.7314198	匕 コ	-3.3202353
-1.0324082	ニ コ	-1.1206617
-1.4358639	ト コ	-1.5855317
-2.5075908	デ コ	-0.4721484
-2.3727376	ク コ	-2.5952563
-2.3042095	セ コ	-0.6767155
-1.9879127	ブ コ	-1.8931806
-2.911745	野 コ	-0.24387686
-2.054307	ヅ コ	-2.1815455
-3.0572813	田 コ	-0.22561143
-3.2769372	山 コ	-0.27613747
-2.8369691	橋 コ	-0.27613747
-2.3987443	ゲ コ	-0.41151002
-1.9747118	バ コ	-0.6319396
-1.7869625	ネ コ	-1.2226852
-2.9656482	井 コ	-0.27613747
-2.6598687	森 コ	-0.27613747
-2.9629261	原 コ	-0.2138478
-3.0380552	木 コ	-0.2138478
-2.2798018	ボ コ	-0.5906286
-1.7948562	ヌ コ	-2.1275153
-2.5873723	藤 コ	-0.27613747
-2.795404	上 コ	-0.27613747
-3.1713114	崎 コ	-0.27613747
-2.4795341	川 コ	-0.24023263
-2.5209897	元 コ	-0.23542082
-1.9417531	手 コ	-0.23542082
-2.6220825	石 コ	-0.27613747
-2.2597423	生 コ	-0.2138478
-1.8880703	ペ コ	-0.23542082
-2.5868654	本 コ	-0.24023263
-2.0609121	ー コ	-0.5233722
-2.1109774	屋 コ	-0.23363474
-2.2707925	見 コ	-0.23542082
-1.1598037	J コ	-0.27613747
-2.3282533	辺 コ	-0.23542082
-2.7545383	下 コ	-0.27613747
-2.502959	葉 コ	-0.27613747
-2.2675118	場 コ	-0.27613747
-1.9846613	朝 コ	-0.27613747
-2.48057	地 コ	-0.27613747
-2.3024564	咲 コ	-0.27613747
-1.8846661	妻 コ	-0.2138478
-0.57061327	侍 コ	-0.27613747
-0.57061327	艦 コ	-0.2138478
-1.7201262	<s> ゥ	-2.6993184
-2.425956	ヵ ゥ	-0.9653193
-1.9985471	ワ ゥ	-1.2529452
-1.8096324	タ ゥ	-1.1585414
-2.387002	ァ ゥ	-0.3951346
-1.2154596	ォ ゥ	-1.8760211
-1.7467082	ミ ゥ	-1.8280026
-1.9506792	ガ ゥ	-0.5945567
-1.2686638	ホ ゥ	-1.8821512
-2.1491072	ズ ゥ	-0.2793076
-1.2309614	コ ゥ	-2.2203393
-2.441485	ゥ ゥ	-1.0339856
-1.7534931	ダ ゥ	-1.3698355
-1.6038713	サ ゥ	-1.636608
-2.800231	ェ ゥ	-0.39713758
-0.94336045	ﾖ ゥ	-2.445356
-1.6316648	シ ゥ	-1.1781495
-1.8813171	ノ ゥ	-1.6924847
-1.662116	マ ゥ	-1.6706456
-1.903169	ィ ゥ	-1.0615149
-1.141404	ヮ ゥ	-1.9636844
-1.4344945	ル ゥ	-1.750697
-1.5319787	ナ ゥ	-1.5512469
-2.1143055	ヤ ゥ	-1.7033578
-1.3055189	ュ ゥ	-2.3291671
-2.0763137	キ ゥ	-1.0370532
-2.3895783	チ ゥ	-1.6254721
-1.3357102	ロ ゥ	-2.6905997
-1.9698123	ン ゥ	-0.34678495
-1.9486738	ベ ゥ	-0.51995784
-2.8349235	ム ゥ	-0.27613747
-1.9162337	ラ ゥ	-1.326995
-1.6714087	リ ゥ	-1.7492381
-3.107758	ッ ゥ	-1.9386666
-2.370432	ハ ゥ	-0.27998677
-2.18616	ケ ゥ	-1.8363755
-2.7569945	テ ゥ	-0.23542082
-2.1807532	ジ ゥ	-0.34160885
-0.34660497	ゴ ゥ	-2.340363
-1.8117747	ギ ゥ	-1.6343693
-2.2614079	ス ゥ	-0.2512524
-2.9345214	ニ ゥ	-0.5032215
-1.3020273	ト ゥ	-2.005255
-2.5480695	デ ゥ	-0.25436634
-1.2258477	ク ゥ	-1.84616
-1.3066831	セ ゥ	-1.1322957
-3.345162	山 ゥ	-0.23363474
-2.4354415	ゲ ゥ	-0.26041803
-0.832918	ソ ゥ	-2.238362
-1.9830043	バ ゥ	-0.5991837
-2.1435652	ザ ゥ	-0.27613747
-0.9143795	ド ゥ	-1.8125299
-1.0887274	ネ ゥ	-1.2571406
-3.1004958	木 ゥ	-0.27613747
-2.3190355	ボ ゥ	-0.40348506
-3.2686107	谷 ゥ	-0.27613747
-1.8347085	也 ゥ	-0.27613747
-3.223473	崎 ゥ	-0.27613747
-0.3840871	ゾ ゥ	-3.0834045
-2.6323478	月 ゥ	-0.27613747
-1.0419623	学 ゥ	-0.36035958
-2.4586115	東 ゥ	-0.27613747
-2.543995	ー ゥ	-0.22666262
-1.5455202	パ ゥ	-0.48828578
-1.8343148	咲 ゥ	-0.22666262
-1.4344457	プ ゥ	-0.22666262
-1.2571748	李 ゥ	-0.23542082
-4.037984	<s> ダ	-0.56813943
-2.3498402	ヵ ダ	-1.6612296
-1.9218255	ワ ダ	-1.4341655
-1.5395108	タ ダ	-1.6462054
-3.4552402	ァ ダ	-2.9160585
-2.0530953	ォ ダ	-1.2077016
-2.542915	ミ ダ	-1.0593296
-2.1373005	ガ ダ	-0.9196676
-1.268947	ホ ダ	-1.8482047
-2.1600504	ズ ダ	-0.24524774
-2.8490198	コ ダ	-2.7657313
-2.143212	ゥ ダ	-1.2239213
-1.7719402	ダ ダ	-1.6978189
-1.4867153	サ ダ	-1.324748
-2.4358068	ェ ダ	-1.503348
-2.483468	ﾖ ダ	-1.1088774
-2.141784	シ ダ	-1.7507352
-1.8830116	ノ ダ	-1.562752
-2.228309	マ ダ	-1.5924772
-1.9041291	ィ ダ	-1.0651178
-2.586743	ル ダ	-0.30147362
-2.9141536	ナ ダ	-1.5164795
-2.2456796	ヤ ダ	-0.6738206
-2.1157718	キ ダ	-1.3453009
-2.216397	チ ダ	-1.6349992
-2.1920907	ロ ダ	-1.0296423
-1.7983061	ン ダ	-1.4107106
-1.956529	ベ ダ	-1.023399
-2.8635886	ム ダ	-0.27613747
-1.9640709	ラ ダ	-1.4501446
-3.2018194	モ ダ	-1.1829453
-2.5934005	リ ダ	-0.7116481
-2.718144	ッ ダ	-1.5130283
-2.3923922	ケ ダ	-1.5169104
-2.5649145	ジ ダ	-0.23542082
-1.9134405	ギ ダ	-1.05625
-2.2669911	ス ダ	-1.6039779
-3.3251412	匕 ダ	-2.686183
-2.9648552	ニ ダ	-1.0581611
-2.2602017	ト ダ	-1.0557005
-2.5757267	デ ダ	-0.2138478
-2.5034623	グ ダ	-0.5974303
-2.2082884	ク ダ	-1.6266373
-2.3174276	セ ダ	-0.819279
-3.4311168	田 ダ	-0.27613747
-3.3945217	山 ダ	-0.27613747
-2.4603257	ゲ ダ	-0.36035958
-2.1698146	バ ダ	-0.64318776
-2.0214126	ネ ダ	-1.486471
-3.026639	メ ダ	-1.2458549
-3.1451244	木 ダ	-0.23542082
-2.3457751	ボ ダ	-0.23542082
-3.0255468	藤 ダ	-0.27613747
-3.3293345	沢 ダ	-0.2138478
-2.0762768	ー ダ	-0.3034852
-1.6160347	<s> サ	-2.7777007
-1.5796807	ヵ サ	-1.8237226
-1.9132508	ワ サ	-1.8636335
-1.8492935	タ サ	-1.5607194
-1.4383456	ァ サ	-1.9270182
-1.2407244	ォ サ	-1.703357
-1.5840001	ミ サ	-1.6214854
-1.9395533	ガ サ	-1.7310375
-1.6363602	ズ サ	-1.4408164
-1.4379494	コ サ	-1.7130624
-1.4117513	ゥ サ	-1.4773977
-1.7520907	ダ サ	-1.73555
-1.5600837	サ サ	-1.9165637
-2.5910957	ェ サ	-0.7058908
-1.6014425	シ サ	-1.3488674
-1.8778081	ノ サ	-1.4075001
-1.3540026	マ サ	-2.2146811
-1.5619565	ィ サ	-1.8384138
-1.1286099	ヮ サ	-2.0036306
-3.0906968	ル サ	-0.2138478
-1.4748893	ナ サ	-2.0038123
-1.8653373	ヤ サ	-1.2048825
-1.5092907	ュ サ	-2.2842078
-1.5746078	キ サ	-1.6256955
-1.4339168	チ サ	-1.6167979
-2.1652107	ロ サ	-1.4133899
-1.7451439	ン サ	-1.2132055
-1.9327514	ベ サ	-0.9264703
-1.0194567	ム サ	-1.9458203
-1.4237529	ラ サ	-1.724055
-1.4815803	リ サ	-1.6030473
-2.033238	ッ サ	-1.1671958
-1.99645	ケ サ	-0.5525403
-2.6487265	レ サ	-0.2138478
-2.1696637	ジ サ	-1.6330013
-1.9011314	ギ サ	-1.4766718
-2.9894996	ス サ	-0.27613747
-1.2521518	匕 サ	-2.3843973
-2.8774083	ニ サ	-0.68058556
-2.8158443	ト サ	-1.3346356
-2.495554	デ サ	-0.26334286
-2.444537	グ サ	-2.1066046
-2.3692546	ク サ	-0.6604956
-2.3016968	セ サ	-0.6561008
-1.7826608	ブ サ	-0.24387686
-2.9056606	野 サ	-0.27613747
-1.5013337	ヅ サ	-2.2281215
-2.9380014	田 サ	-0.33043367
-2.9607565	山 サ	-0.27613747
-2.3877716	ゲ サ	-0.2842373
-1.6738856	バ サ	-0.8583844
-3.1819701	島 サ	-0.27613747
-2.3690095	ネ サ	-0.38266173
-2.7163432	永 サ	-0.27613747
-3.2857854	井 サ	-0.27613747
-3.2251396	村 サ	-0.27613747
-2.6049705	宮 サ	-0.27613747
-2.6436596	森 サ	-0.27613747
-2.6517234	嶋 サ	-0.2138478
-3.0477023	口 サ	-0.27613747
-3.3162959	原 サ	-0.27613747
-2.5232508	木 サ	-0.2138478
-2.268114	ボ サ	-0.48117065
-2.762877	林 サ	-0.27613747
-2.4134307	藤 サ	-0.22561143
-2.3898482	瀬 サ	-0.24387686
-2.0119646	世 サ	-0.27613747
-2.7789571	上 サ	-0.2138478
-2.5307872	平 サ	-0.27613747
-3.156061	崎 サ	-0.27613747
-3.005556	川 サ	-0.23363474
-3.0884082	岡 サ	-0.27613747
-2.785941	部 サ	-0.27613747
-1.8177706	ヲ サ	-0.27613747
-2.369442	花 サ	-0.27613747
-2.537696	浦 サ	-0.27613747
-2.9191432	本 サ	-0.27613747
-2.4032435	東 サ	-0.27613747
-1.8235358	ー サ	-0.31796476
-2.584437	戸 サ	-0.27613747
-1.8690664	辺 サ	-0.34215772
-2.7403238	下 サ	-0.27613747
-2.490258	葉 サ	-0.27613747
-1.7443691	歩 サ	-0.27613747
-2.148131	波 サ	-0.27613747
-1.8548046	納 サ	-0.4572696
-2.0679846	貝 サ	-0.2138478
-1.2510437	鳩 サ	-0.2138478
-1.5303069	稀 サ	-0.27613747
-0.86670744	骨 サ	-0.2138478
-1.2510437	李 サ	-0.27613747
-0.86670744	朴 サ	-0.23542082
-2.2484696	<s> ェ	-2.28442
-1.5315009	ヵ ェ	-1.8024049
-1.982644	ワ ェ	-1.5568284
-1.5933268	タ ェ	-1.7823987
-1.561947	ァ ェ	-1.7686645
-2.0338652	ォ ェ	-1.3659471
-1.63379	ミ ェ	-2.0286956
-2.0913277	ガ ェ	-0.71637714
-3.036556	ホ ェ	-0.4572696
-1.5321366	ズ ェ	-2.096579
-2.6080935	コ ェ	-1.1470269
-1.8688697	ゥ ェ	-2.0076814
-1.7502464	ダ ェ	-1.6110845
-1.473182	サ ェ	-2.2914715
-2.741491	ェ ェ	-0.6967051
-2.4410493	ﾖ ェ	-2.0011227
-1.4897518	シ ェ	-1.7491097
-1.611712	ノ ェ	-1.625455
-1.6726305	マ ェ	-2.0210004
-2.8029947	内 ェ	-0.27613747
-1.5898845	ィ ェ	-1.3269984
-1.1527683	ヮ ェ	-1.1140628
-2.1624217	ル ェ	-2.5742981
-1.4360658	ナ ェ	-2.5871742
-1.1559696	ヤ ェ	-1.5898896
-1.5609539	ュ ェ	-2.2746146
-1.6088212	キ ェ	-1.8396045
-1.3265948	チ ェ	-1.8016648
-1.8600464	ロ ェ	-1.1816933
-2.3821301	ン ェ	-0.32208142
-1.9125898	ベ ェ	-0.7385695
-2.7180772	ム ェ	-0.27613747
-1.9519378	ラ ェ	-1.5169325
-1.2296234	モ ェ	-2.1858938
-1.5068644	リ ェ	-1.5917332
-1.2598495	ッ ェ	-1.9340281
-3.1566458	ハ ェ	-1.9912957
-1.8693397	海 ェ	-0.5364508
-2.1496935	ケ ェ	-0.53151846
-1.243676	レ ェ	-1.9451147
-1.2703663	ジ ェ	-0.51859796
-2.2530746	ゴ ェ	-0.2138478
-1.7194073	ギ ェ	-0.6945243
-2.2353895	ス ェ	-1.8143104
-1.0574968	ニ ェ	-1.2599994
-2.2392452	ト ェ	-1.7281538
-2.4347265	デ ェ	-0.28905457
-2.3979785	グ ェ	-0.27613747
-2.3505821	ク ェ	-2.078446
-2.288132	セ ェ	-0.6209071
-2.4096694	ブ ェ	-2.1421149
-2.873639	野 ェ	-0.24524774
-1.4948949	ヅ ェ	-2.4641633
-2.4421475	田 ェ	-0.47990647
-2.4243033	山 ェ	-0.39452547
-2.6207714	倉 ェ	-0.27613747
-2.7482514	橋 ェ	-0.27613747
-2.331927	ゲ ェ	-0.3414718
-0.9790799	ソ ェ	-1.9314859
-1.8380384	バ ェ	-1.0179458
-2.6086984	島 ェ	-0.2512524
-2.7317162	子 ェ	-0.27613747
-2.340038	ネ ェ	-0.4479201
-2.6461625	永 ェ	-0.27613747
-2.914026	井 ェ	-0.23363474
-2.4036562	村 ェ	-0.30147362
-2.2031279	宮 ェ	-0.27613747
-2.5639386	森 ェ	-0.27613747
-0.6427334	ビ ェ	-1.9458203
-2.9752564	口 ェ	-0.27613747
-2.4763794	原 ェ	-0.2990009
-2.226285	木 ェ	-0.39452547
-2.2089133	ボ ェ	-0.52476776
-2.6310754	谷 ェ	-0.4572696
-2.3273175	林 ェ	-0.2138478
-1.2319243	ヌ ェ	-1.7500821
-1.5845582	桜 ェ	-0.23363474
-2.533091	藤 ェ	-0.24524774
-2.5966992	瀬 ェ	-0.2138478
-2.4057279	崎 ェ	-0.30584386
-2.6610775	川 ェ	-0.23452686
-3.0144887	岡 ェ	-0.27613747
-1.6688087	ゾ ェ	-0.2138478
-2.7299435	塚 ェ	-0.27613747
-2.303694	城 ェ	-0.27613747
-2.6445906	沢 ェ	-0.27613747
-2.2952962	花 ェ	-0.23542082
-2.5010715	月 ェ	-0.27613747
-1.8770224	科 ェ	-0.27613747
-2.7198353	本 ェ	-0.24387686
-2.339535	東 ェ	-0.27613747
-2.2329843	竹 ェ	-0.23542082
-2.7519374	ー ェ	-0.2138478
-2.7311106	坂 ェ	-0.27613747
-2.4668937	屋 ェ	-0.27613747
-1.8192217	黒 ェ	-0.23542082
-1.6700906	ピ ェ	-0.7996923
-1.9092668	風 ェ	-0.27613747
-1.3774471	遊 ェ	-0.23542082
-0.33445895	左 ェ	-0.5364508
-1.9182888	穂 ェ	-0.27613747
-1.852409	呂 ェ	-0.2138478
-2.3688147	泉 ェ	-0.2138478
-1.805377	五 ェ	-0.2138478
-2.1960683	尻 ェ	-0.27613747
-2.1709769	星 ェ	-0.2138478
-1.0946872	ヴ ェ	-0.23363474
-0.077248804	右 ェ	-1.6275313
-1.9123468	橘 ェ	-0.2138478
-2.0906675	堂 ェ	-0.27613747
-1.6908836	梅 ェ	-0.27613747
-2.24267	咲 ェ	-0.27613747
-2.4141836	里 ェ	-0.27613747
-1.0333213	為 ェ	-0.23542082
-1.8236759	畠 ェ	-0.27613747
-1.4792048	蓮 ェ	-0.2138478
-1.8168461	寿 ェ	-0.2138478
-1.8236759	倍 ェ	-0.2138478
-1.5267625	行 ェ	-0.27613747
-1.7975643	未 ェ	-0.27613747
-0.8634032	台 ェ	-0.2138478
-1.1521733	瓜 ェ	-0.2138478
-1.3205723	晶 ェ	-0.27613747
-0.56863546	鯨 ェ	-0.2138478
-0.8634032	櫛 ェ	-0.23542082
-1.6356382	<s> ﾖ	-3.117705
-1.5010809	ヵ ﾖ	-2.0854514
-1.9946548	ワ ﾖ	-1.9549888
-1.8289093	タ ﾖ	-1.9813874
-2.2664983	ォ ﾖ	-1.0033659
-1.6143043	ミ ﾖ	-2.3858101
-2.1196518	ガ ﾖ	-1.3015234
-3.1021187	ホ ﾖ	-0.2138478
-1.7655	ズ ﾖ	-2.1307514
-1.4673451	コ ﾖ	-1.7383571
-1.5370073	ゥ ﾖ	-1.6985314
-1.7527072	ダ ﾖ	-2.0880363
-1.5215857	サ ﾖ	-2.2286973
-2.4237914	ェ ﾖ	-1.0095687
-1.3860878	シ ﾖ	-2.331491
-1.9012961	ノ ﾖ	-1.7690234
-1.7174623	マ ﾖ	-2.0645714
-2.8992445	内 ﾖ	-0.27613747
-1.6451823	ィ ﾖ	-1.9327171
-3.077518	ヮ ﾖ	-0.2138478
-2.7459795	ル ﾖ	-2.438635
-1.5466847	ナ ﾖ	-2.5644796
-1.2088124	ヤ ﾖ	-1.864509
-3.3955412	ュ ﾖ	-0.27613747
-1.4828281	キ ﾖ	-2.3328457
-1.3473283	チ ﾖ	-1.8997107
-2.1730297	ロ ﾖ	-1.7613989
-2.4223046	ン ﾖ	-1.5240014
-1.9396855	ベ ﾖ	-1.321673
-2.1623683	ム ﾖ	-0.421339
-2.0679045	ラ ﾖ	-2.049076
-2.6889482	モ ﾖ	-2.2503612
-1.5082062	リ ﾖ	-2.4618163
-1.3408456	ッ ﾖ	-2.3102796
-2.0011365	ケ ﾖ	-1.610199
-2.738422	テ ﾖ	-1.9013144
-0.92073065	ジ ﾖ	-1.4252415
-1.604245	ギ ﾖ	-1.1256802
-2.4297333	ス ﾖ	-2.0323987
-1.2735803	匕 ﾖ	-1.8727616
-1.8683263	ニ ﾖ	-1.6529033
-1.3636352	ト ﾖ	-2.0234766
-2.0670187	デ ﾖ	-1.6586667
-2.5671709	ク ﾖ	-2.0527658
-2.3063142	セ ﾖ	-1.1202309
-2.4767935	ブ ﾖ	-1.7907293
-2.4028826	高 ﾖ	-0.36035958
-3.0865433	野 ﾖ	-0.27613747
-3.384743	田 ﾖ	-0.22666262
-3.293878	山 ﾖ	-0.27613747
-2.4451659	橋 ﾖ	-0.27613747
-2.408105	ゲ ﾖ	-0.6746645
-0.8454199	ソ ﾖ	-2.012847
-1.9768786	バ ﾖ	-1.1295445
-3.2114847	島 ﾖ	-0.27613747
-2.0109377	ネ ﾖ	-1.6046089
-3.3193629	井 ﾖ	-0.27613747
-2.494962	畑 ﾖ	-0.2138478
-2.265614	岸 ﾖ	-0.36035958
-1.8680297	都 ﾖ	-0.36035958
-2.0219266	ビ ﾖ	-0.27613747
-3.346806	原 ﾖ	-0.27613747
-2.2897878	ボ ﾖ	-0.8139994
-1.7980826	ヌ ﾖ	-2.090738
-2.594849	藤 ﾖ	-0.2138478
-2.4330263	上 ﾖ	-0.27613747
-3.0226247	川 ﾖ	-0.2138478
-2.392963	岩 ﾖ	-0.27613747
-2.6347737	石 ﾖ	-0.27613747
-1.8917161	ペ ﾖ	-0.2138478
-3.2905989	本 ﾖ	-0.27613747
-2.8723893	ー ﾖ	-0.2138478
-2.610416	戸 ﾖ	-0.27613747
-2.2262778	ピ ﾖ	-0.36035958
-2.7492726	西 ﾖ	-0.27613747
-2.3507206	下 ﾖ	-0.2138478
-2.4799688	に ﾖ	-0.6033976
-2.2758338	場 ﾖ	-0.27613747
-1.9702618	巳 ﾖ	-0.2138478
-1.9112077	輪 ﾖ	-0.2138478
-1.0398607	洲 ﾖ	-0.27613747
-1.5315074	<s> シ	-2.7891448
-1.5673912	ヵ シ	-2.0279098
-1.8464907	ワ シ	-1.9111954
-1.8280339	タ シ	-1.9000343
-2.600196	ァ シ	-0.27613747
-1.9639887	ォ シ	-1.9812436
-1.6349722	ミ シ	-1.6748377
-1.9386754	ガ シ	-1.5980529
-1.1384792	ホ シ	-1.5242412
-2.1254485	ズ シ	-1.2011007
-3.2169287	コ シ	-0.49986488
-1.4694741	ゥ シ	-1.5749731
-1.7519786	ダ シ	-1.9230403
-1.5737808	サ シ	-1.7989675
-2.589758	ェ シ	-0.94592506
-0.75222915	ﾖ シ	-2.3583984
-2.0487437	シ シ	-1.46362
-1.8775285	ノ シ	-1.7920729
-1.6353518	マ シ	-1.9772406
-1.8433474	ィ シ	-2.222974
-2.5983613	ヮ シ	-0.23363474
-2.1724064	ル シ	-0.23932494
-2.6907306	ナ シ	-1.6391132
-1.8649353	ヤ シ	-1.8765563
-1.6227127	キ シ	-1.5783507
-2.284462	チ シ	-1.559204
-1.870999	ロ シ	-1.266952
-1.6328228	ン シ	-1.166181
-1.9315026	ベ シ	-1.0969124
-2.776606	ム シ	-0.27613747
-1.9572693	ラ シ	-1.6717085
-2.6799393	モ シ	-1.7076185
-2.4058897	リ シ	-1.564145
-2.032709	ッ シ	-1.9421201
-2.3638074	ハ シ	-1.6923211
-2.1688027	ケ シ	-1.7017943
-3.1001477	レ シ	-0.27613747
-2.341274	ジ シ	-0.7053446
-2.281576	ゴ シ	-0.27613747
-1.7261508	ギ シ	-1.3626785
-2.9845839	ス シ	-2.1293674
-1.9627947	ニ シ	-2.1911922
-1.2384436	ト シ	-2.2676177
-1.8634709	デ シ	-1.1268277
-1.9719383	ク シ	-2.3174908
-1.3202493	セ シ	-1.1527629
-2.3701053	高 シ	-0.2138478
-3.3793197	野 シ	-0.27613747
-3.2062776	田 シ	-0.2138478
-2.5587332	美 シ	-0.27613747
-2.6885026	倉 シ	-0.27613747
-2.3841748	ゲ シ	-0.5112297
-1.8479334	バ シ	-1.2699735
-2.1165645	ザ シ	-0.27613747
-2.4172614	ド シ	-0.4572696
-2.0057936	ネ シ	-1.6760459
-2.9545472	井 シ	-0.23363474
-2.4678369	口 シ	-0.2512524
-2.7152457	松 シ	-0.27613747
-2.7774258	原 シ	-0.2138478
-2.6887476	木 シ	-0.5364508
-2.264287	ボ シ	-0.7407979
-3.1913545	谷 シ	-0.2138478
-2.4114487	藤 シ	-0.29505688
-2.7000365	瀬 シ	-0.27613747
-2.3561769	羽 シ	-0.2138478
-2.2441006	居 シ	-0.27613747
-2.7736104	上 シ	-0.27613747
-2.526254	平 シ	-0.27613747
-2.8374205	尾 シ	-0.2138478
-3.0025237	川 シ	-0.27613747
-2.3261542	保 シ	-0.2138478
-3.0835516	岡 シ	-0.27613747
-2.2445626	渡 シ	-0.23542082
-2.175387	部 シ	-0.2512524
-2.7876613	塚 シ	-0.27613747
-2.2411182	三 シ	-0.27613747
-2.0757785	南 シ	-0.27613747
-2.5331025	浦 シ	-0.27613747
-2.652558	賀 シ	-0.27613747
-2.5820212	本 シ	-0.2501401
-2.096078	置 シ	-0.23542082
-1.5280316	ー シ	-0.37340719
-2.5268734	屋 シ	-0.27613747
-2.2155826	ピ シ	-0.2138478
-2.184577	須 シ	-0.27613747
-1.8528532	榊 シ	-0.27613747
-2.2694	丸 シ	-0.27613747
-2.2287269	星 シ	-0.27613747
-1.8959731	吹 シ	-0.23542082
-2.0589964	パ シ	-0.2138478
-1.9565862	巳 シ	-0.2138478
-0.5702069	碇 シ	-0.27613747
-0.5702069	斌 シ	-0.27613747
-1.9399775	<s> ノ	-2.6664042
-1.5518143	ヵ ノ	-1.7474691
-1.8291324	ワ ノ	-1.4010446
-1.8021538	タ ノ	-1.5461354
-1.6622409	ァ ノ	-1.748182
-1.8803561	ォ ノ	-1.5853513
-1.6105698	ミ ノ	-1.9461999
-1.9009019	ガ ノ	-1.2331101
-1.1494894	ホ ノ	-1.9407142
-1.7287518	ズ ノ	-1.3861401
-1.4075881	コ ノ	-1.7708669
-1.4074249	ゥ ノ	-1.4729229
-1.7469684	ダ ノ	-1.822417
-1.5058085	サ ノ	-1.5745203
-2.3792129	ェ ノ	-1.4492351
-2.0565333	ﾖ ノ	-2.6009088
-1.4874576	シ ノ	-1.9533278
-1.6307673	ノ ノ	-1.5386723
-1.6437631	マ ノ	-1.5914118
-1.6080521	ィ ノ	-2.1642716
-1.3445237	ル ノ	-2.2515326
-1.4342167	ナ ノ	-2.094359
-1.8472204	ヤ ノ	-1.3624425
-1.5320407	ュ ノ	-2.2854998
-1.5941945	キ ノ	-1.7060183
-1.430065	チ ノ	-1.8732059
-2.104803	ロ ノ	-1.6664724
-1.9320203	ン ノ	-1.3407423
-1.8787227	ベ ノ	-1.0167496
-1.9906554	ラ ノ	-1.4290966
-1.3737098	モ ノ	-2.293538
-1.6534182	リ ノ	-1.6245174
-1.9469101	ッ ノ	-1.5015231
-1.2963694	ハ ノ	-1.9546194
-1.959116	ケ ノ	-1.5452238
-1.6039498	菜 ノ	-0.34215772
-1.286294	レ ノ	-2.0393329
-2.2863767	ジ ノ	-1.1258683
-1.7816073	ギ ノ	-1.2573156
-2.8066216	ス ノ	-2.1219115
-1.5116293	匕 ノ	-1.091943
-2.3882532	ニ ノ	-1.7488549
-1.4313828	ト ノ	-1.8452523
-1.9970056	デ ノ	-1.9556212
-1.2059075	ク ノ	-1.3305395
-2.2648873	セ ノ	-0.7333684
-2.1930673	高 ノ	-0.27613747
-3.1695125	野 ノ	-0.27613747
-3.1155117	田 ノ	-0.33043367
-2.8336859	山 ノ	-0.24524774
-1.8794336	ゲ ノ	-1.8532267
-0.8316756	ソ ノ	-2.320989
-1.934287	バ ノ	-0.78613895
-2.9917772	島 ノ	-0.27613747
-2.2790506	ド ノ	-0.27613747
-2.1383302	小 ノ	-0.22666262
-2.648162	子 ノ	-0.2138478
-2.2926161	ネ ノ	-0.5771228
-1.824351	福 ノ	-0.22296253
-2.8460095	井 ノ	-0.35272688
-2.4125519	宮 ノ	-0.22561143
-2.450052	森 ノ	-0.27613747
-2.8268034	メ ノ	-0.27613747
-2.488317	嶋 ノ	-0.2138478
-2.8698504	口 ノ	-0.23542082
-2.530157	松 ノ	-0.27613747
-1.4085207	増 ノ	-0.27613747
-2.5802488	木 ノ	-0.29571426
-1.7663329	ボ ノ	-0.5854663
-3.0029285	谷 ノ	-0.27613747
-2.4531364	中 ノ	-0.2501401
-1.5233657	塩 ノ	-0.27613747
-2.4620397	藤 ノ	-0.2582181
-2.1471581	大 ノ	-0.27613747
-2.249591	一 ノ	-1.9237502
-2.2028708	羽 ノ	-0.2138478
-2.5831058	上 ノ	-0.30584386
-2.3597379	平 ノ	-0.2138478
-2.6647496	尾 ノ	-0.27613747
-1.9056162	市 ノ	-0.27613747
-1.4896523	鶴 ノ	-0.27613747
-2.90734	岡 ノ	-0.2138478
-1.7844328	ヲ ノ	-0.27613747
-2.2550151	城 ノ	-0.2138478
-1.7458572	三 ノ	-0.24387686
-2.7585673	沢 ノ	-0.23363474
-2.187881	花 ノ	-0.24387686
-1.8243835	鈴 ノ	-0.27613747
-2.0051506	賀 ノ	-0.24387686
-2.08107	代 ノ	-0.27613747
-1.9112579	安 ノ	-0.27613747
-2.0907538	月 ノ	-0.23363474
-1.7699003	所 ノ	-0.23542082
-2.8128738	本 ノ	-0.2138478
-2.1786606	水 ノ	-0.2138478
-2.3996937	津 ノ	-0.27613747
-2.050311	玉 ノ	-0.24456176
-1.5809535	鹿 ノ	-0.27613747
-2.1407363	竹 ノ	-0.2138478
-2.2619286	ー ノ	-0.2553022
-2.6272092	坂 ノ	-0.27613747
-2.401233	越 ノ	-0.27613747
-2.412524	戸 ノ	-0.27613747
-2.394692	脇 ノ	-0.27613747
-2.5393636	西 ノ	-0.22666262
-2.0474315	北 ノ	-0.2138478
-1.6337599	姫 ノ	-0.27613747
-1.4952352	照 ノ	-0.22666262
-1.9834573	愛 ノ	-0.2138478
-1.7876328	清 ノ	-0.27613747
-1.4573972	豊 ノ	-0.22561143
-2.2935557	関 ノ	-0.2138478
-1.7955766	駒 ノ	-0.27613747
-1.4517124	片 ノ	-0.27613747
-2.060682	須 ノ	-0.27613747
-1.5288501	稲 ノ	-0.27613747
-1.4143114	笠 ノ	-0.27613747
-2.05959	出 ノ	-0.27613747
-1.8821127	穂 ノ	-0.27613747
-1.3586383	歌 ノ	-0.27613747
-2.0766594	池 ノ	-0.35015342
-1.9117986	二 ノ	-0.5276926
-1.9220185	貴 ノ	-0.23363474
-1.423774	佐 ノ	-0.27613747
-1.7730393	若 ノ	-0.2501401
-1.6218337	矢 ノ	-0.27613747
-1.9796793	夏 ノ	-0.27613747
-1.4345964	奥 ノ	-0.2501401
-1.7100642	重 ノ	-0.27613747
-1.8252858	斐 ノ	-0.27613747
-1.9055991	前 ノ	-0.23542082
-2.0732362	日 ノ	-0.27613747
-1.2291981	後 ノ	-0.27613747
-1.6918682	青 ノ	-0.27613747
-1.4085207	四 ノ	-0.36035958
-1.9183071	桐 ノ	-0.2138478
-1.9220779	浅 ノ	-0.27613747
-1.5386888	智 ノ	-0.23363474
-1.8102585	勝 ノ	-0.27613747
-1.8775177	朝 ノ	-0.27613747
-1.8510168	橘 ノ	-0.22561143
-1.9762332	パ ノ	-0.36035958
-2.0228398	堂 ノ	-0.23542082
-1.9670763	春 ノ	-0.23363474
-1.8799635	幸 ノ	-0.27613747
-1.3586383	常 ノ	-0.27613747
-2.0239973	達 ノ	-0.27613747
-1.7999135	溝 ノ	-0.27613747
-1.7820084	勢 ノ	-0.23363474
-2.2352283	良 ノ	-0.23542082
-1.6734524	女 ノ	-0.23363474
-1.741752	裕 ノ	-0.27613747
-1.6154604	義 ノ	-0.27613747
-1.7397904	秀 ノ	-0.27613747
-1.8046486	英 ノ	-0.23542082
-0.85755765	栃 ノ	-0.24023263
-1.9616653	貝 ノ	-0.27613747
-1.5737412	登 ノ	-0.23542082
-1.4952352	康 ノ	-0.2138478
-1.0247042	外 ノ	-0.2138478
-1.6739559	琴 ノ	-0.2138478
-1.2999552	虎 ノ	-0.27613747
-1.2291981	鴨 ノ	-0.27613747
-1.0247042	鯉 ノ	-0.27613747
-1.1408789	雷 ノ	-0.2138478
-1.1408789	摩 ノ	-0.36035958
-1.5161258	帆 ノ	-0.27613747
-1.1408789	芸 ノ	-0.27613747
-1.6968052	純 ノ	-0.27613747
-1.1408789	恭 ノ	-0.27613747
-1.1408789	磨 ノ	-0.2138478
-1.2291981	浪 ノ	-0.27613747
-1.0310897	琉 ノ	-0.27613747
-0.85755765	洞 ノ	-0.27613747
-1.3645389	銀 ノ	-0.27613747
-1.0247042	此 ノ	-0.27613747
-0.85755765	異 ノ	-0.2138478
-1.2291981	聡 ノ	-0.27613747
-0.85755765	頂 ノ	-0.27613747
-1.2291981	卯 ノ	-0.2138478
-0.85755765	鷺 ノ	-0.2138478
-0.5656604	舛 ノ	-0.27613747
-0.5656604	弐 ノ	-0.27613747
-0.5656604	性 ノ	-0.27613747
-1.4177535	<s> マ	-2.847071
-2.2081985	ヵ マ	-1.7308836
-1.9788909	ワ マ	-1.6165736
-1.54728	タ マ	-1.9351897
-2.9186368	ァ マ	-2.5925777
-2.2406533	ォ マ	-0.6765075
-1.7033584	ミ マ	-1.1760786
-2.0826895	ガ マ	-0.8201952
-1.3203045	ホ マ	-1.9486313
-1.6235534	ズ マ	-1.3313998
-1.3962443	コ マ	-1.9376758
-2.0017133	ゥ マ	-1.5956407
-1.7163124	ダ マ	-1.7165455
-1.6159477	サ マ	-1.0027146
-1.4235882	ェ マ	-0.97622824
-1.572149	シ マ	-2.0748014
-1.6999288	ノ マ	-1.4906933
-2.3193684	マ マ	-1.6148775
-2.2563078	内 マ	-0.2138478
-1.620524	ィ マ	-1.9089267
-2.571745	ヮ マ	-0.36035958
-2.1579866	ル マ	-1.4537684
-2.8412988	ナ マ	-1.6447903
-1.1554202	ヤ マ	-2.5302615
-1.5893764	ュ マ	-2.474303
-2.0332336	キ マ	-1.4684426
-2.271251	チ マ	-1.4012185
-1.6870135	ロ マ	-1.0093522
-1.7796147	ン マ	-1.0789099
-1.9043113	ベ マ	-0.935853
-1.3690951	ラ マ	-1.9084947
-3.0431044	モ マ	-1.9075187
-1.7093084	リ マ	-1.1380464
-2.6219544	ッ マ	-0.76311594
-2.7199771	ハ マ	-2.7214043
-2.346984	海 マ	-0.27613747
-2.1413317	ケ マ	-0.6118308
-1.2875222	レ マ	-2.1348765
-2.6689634	テ マ	-0.2138478
-1.6899424	ジ マ	-1.9717606
-1.8859825	ギ マ	-0.8326438
-1.2269127	ス マ	-1.8786621
-1.427525	匕 マ	-1.9472281
-2.4206657	ニ マ	-0.8245497
-2.0949593	ト マ	-1.3652241
-2.0262163	デ マ	-0.9763208
-2.342897	ク マ	-1.4583459
-2.1633363	セ マ	-0.7241659
-1.7672559	ブ マ	-1.734126
-2.2726269	高 マ	-0.27613747
-2.4439628	野 マ	-0.24100894
-2.439453	田 マ	-0.32494152
-2.891221	山 マ	-0.23363474
-2.2206125	橋 マ	-0.23363474
-2.3102458	ゲ マ	-0.40837944
-1.9523835	バ マ	-0.7892608
-2.7625225	島 マ	-0.27613747
-1.7526107	ド マ	-0.22561143
-2.7103865	子 マ	-0.23363474
-2.3283079	ネ マ	-0.53535855
-2.619505	永 マ	-0.27613747
-2.596958	井 マ	-0.27613747
-1.7123911	樹 マ	-0.27613747
-2.6663234	村 マ	-0.2512524
-2.0679235	森 マ	-0.30584386
-2.886612	メ マ	-0.27613747
-2.5606277	嶋 マ	-0.27613747
-2.9478326	口 マ	-0.27613747
-2.073044	金 マ	-0.27613747
-2.9041662	原 マ	-0.27613747
-2.1311395	木 マ	-0.23422924
-2.186047	ボ マ	-0.5575307
-2.7823074	谷 マ	-0.27613747
-2.6677573	林 マ	-0.27613747
-2.045825	河 マ	-0.27613747
-2.233259	中 マ	-0.23363474
-1.7620542	ヌ マ	-2.675805
-2.2214978	藤 マ	-0.23945774
-2.313465	一 マ	-0.2138478
-2.0397627	瀬 マ	-0.2574105
-2.667995	上 マ	-0.23363474
-2.404854	尾 マ	-0.23363474
-3.052156	崎 マ	-0.27613747
-2.219463	川 マ	-0.26977462
-2.1232064	久 マ	-0.2138478
-2.2476015	保 マ	-0.27613747
-2.9865694	岡 マ	-0.2138478
-2.3302355	部 マ	-0.24524774
-1.8004198	ヲ マ	-0.27613747
-1.9540844	城 マ	-0.34215772
-2.8000035	沢 マ	-0.27613747
-2.0152445	南 マ	-0.27613747
-2.0944247	浦 マ	-0.27613747
-2.2044897	賀 マ	-0.23542082
-1.8511966	ペ マ	-0.2138478
-2.5557356	本 マ	-0.22561143
-2.2563086	水 マ	-0.2138478
-2.0445285	置 マ	-0.27613747
-1.8104837	ー マ	-0.34937713
-2.139831	戸 マ	-0.27613747
-2.442303	屋 マ	-0.27613747
-2.05074	見 マ	-0.27613747
-2.2903304	西 マ	-0.27613747
-2.1403596	利 マ	-0.27613747
-1.8947103	風 マ	-0.27613747
-1.8388997	辺 マ	-0.27613747
-1.8704318	人 マ	-0.27613747
-1.8111153	榊 マ	-0.2138478
-2.0534513	形 マ	-0.27613747
-2.4018478	葉 マ	-0.2138478
-1.8184938	角 マ	-0.27613747
-2.286406	馬 マ	-0.27613747
-2.1376474	日 マ	-0.27613747
-1.2397462	後 マ	-0.23542082
-1.9475648	成 マ	-0.27613747
-1.765874	星 マ	-0.27613747
-1.6765532	町 マ	-0.2138478
-2.0735881	堂 マ	-0.27613747
-2.0566227	音 マ	-0.27613747
-1.8912907	堤 マ	-0.2138478
-1.5134643	桑 マ	-0.23542082
-2.3003786	良 マ	-0.27613747
-2.1888187	奈 マ	-0.2138478
-1.7725366	取 マ	-0.27613747
-1.9869236	道 マ	-0.27613747
-1.5531056	羅 マ	-0.27613747
-2.084645	波 マ	-0.27613747
-1.8947103	槻 マ	-0.23363474
-1.7026812	葵 マ	-0.2138478
-1.3729097	凪 マ	-0.27613747
-1.1494666	摩 マ	-0.27613747
-1.7567233	丘 マ	-0.27613747
-0.86200905	積 マ	-0.27613747
-1.5797402	次 マ	-0.2138478
-1.0312611	肉 マ	-0.23542082
-1.1583421	己 マ	-0.27613747
-1.0312611	慈 マ	-0.27613747
-1.0312611	極 マ	-0.27613747
-0.5679277	呉 マ	-0.27613747
-2.6961133	<s> 長	-1.2292835
-3.766471	ィ 長	-0.27613747
-3.0503633	や 長	-0.27613747
-2.3924754	池 長	-0.27613747
-1.4180578	猫 長	-0.27613747
-0.5746988	番 長	-0.27613747
-3.2454352	<s> 内	-1.5229738
-3.086785	ノ 内	-0.27613747
-2.2644672	長 内	-0.25791493
-3.1398559	ン 内	-0.27613747
-3.9194121	田 内	-0.27613747
-3.0716596	山 内	-0.4133534
-2.77407	美 内	-0.2138478
-3.5168447	井 内	-0.27613747
-2.8053708	宮 内	-0.32287282
-2.2822778	武 内	-0.34650704
-3.2510598	木 内	-0.31416193
-3.399138	谷 内	-0.3178294
-1.4666176	河 内	-0.45317546
-2.5832772	大 内	-0.3981466
-3.5611854	川 内	-0.28413346
-2.0987298	相 内	-0.27613747
-2.5532477	東 内	-0.27613747
-2.5269809	堀 内	-0.36813045
-2.438524	竹 内	-0.41358107
-2.5162745	柳 内	-0.27613747
-2.905221	西 内	-0.27613747
-2.197081	愛 内	-0.27613747
-2.3317103	池 内	-0.2591708
-1.7291573	横 内	-0.29157224
-2.154337	嶺 内	-0.27613747
-2.6051202	垣 内	-0.26899138
-1.8248179	坪 内	-0.36550084
-2.3297482	寺 内	-0.34586775
-2.1820412	希 内	-0.2138478
-1.0480254	之 内	-0.340963
-0.57341796	鈍 内	-0.2138478
-4.015632	<s> り	-0.3448267
-1.8542732	長 り	-0.24524774
-1.4865235	内 り	-0.5277943
-1.9351711	り り	-0.36451757
-2.6986508	さ り	-0.24387686
-1.7786901	天 り	-0.27613747
-1.44368	海 り	-0.25345665
-2.6488707	こ り	-0.2138478
-1.9770848	ろ り	-0.27613747
-1.9029711	か り	-2.4423163
-1.7442595	ん り	-1.4066157
-1.5603893	菜 り	-0.2138478
-2.8216283	ト り	-0.23542082
-1.679508	高 り	-0.2501401
-1.433674	野 り	-0.8579856
-1.5648426	あ り	-1.04401
-1.4634907	田 り	-0.9170486
-1.4869472	山 り	-0.6154846
-0.5617561	よ り	-1.9477223
-2.7182484	し り	-0.2138478
-1.6631123	美 り	-0.23824273
-1.5374614	倉 り	-0.35221216
-1.4564105	橋 り	-0.4373036
-0.88921094	お り	-2.0980828
-2.1800683	い り	-1.4156053
-1.4480734	島 り	-0.7702926
-2.4901345	み り	-1.1102582
-1.7863171	き り	-0.79937017
-2.753387	ふ り	-0.2138478
-1.9595951	小 り	-0.27613747
-1.5394735	菅 り	-0.27613747
-0.94178796	ゆ り	-1.6884326
-2.0522213	子 り	-0.34937713
-1.4479437	永 り	-0.36362848
-1.7875129	今 り	-0.23542082
-1.4386238	井 り	-0.73016566
-1.4718056	畑 り	-0.2680553
-2.6817513	た り	-0.27613747
-1.1807282	樹 り	-0.39738044
-1.4323455	村 り	-0.6425586
-0.7255335	の り	-1.799371
-1.5078809	岸 り	-0.23363474
-1.4343767	も り	-1.0191602
-2.1849823	と り	-0.97562623
-1.4845479	宮 り	-0.29498562
-0.5405816	え り	-1.5669612
-1.5849733	森 り	-0.26482323
-1.3183689	嶋 り	-0.34127995
-1.9048415	武 り	-0.27613747
-1.4832611	口 り	-0.56746703
-1.9232483	く り	-0.2479589
-1.5424166	松 り	-0.3158326
-0.60013735	る り	-1.6630826
-1.8641489	金 り	-0.22561143
-1.4504514	原 り	-0.78550327
-1.5185153	紫 り	-0.27613747
-2.0343108	う り	-0.96241957
-1.8538606	な り	-1.3445246
-1.6349472	頭 り	-0.23363474
-1.4460888	木 り	-0.4466751
-1.4607416	谷 り	-0.62921184
-2.473923	は り	-0.23363474
-2.415085	つ り	-0.8722429
-1.4878755	林 り	-0.31659344
-1.8541585	河 り	-0.27613747
-1.5308368	中 り	-0.3630039
-1.7150191	じ り	-0.4407797
-1.8385353	桜 り	-0.2138478
-1.4335655	ね り	-0.4106181
-1.5224123	藤 り	-0.47305208
-2.575789	め り	-0.27613747
-0.9338885	ぐ り	-1.1617017
-1.580744	瀬 り	-0.4721484
-1.3838217	羽 り	-0.22996937
-1.9939151	居 り	-0.27613747
-1.5285783	上 り	-0.47602677
-0.8196002	ま り	-1.9031379
-0.96165174	ど り	-1.8526254
-1.5774016	平 り	-0.22926402
-1.5030727	尾 り	-0.4163239
-1.4042484	崎 り	-0.6905439
-1.7894611	市 り	-0.27613747
-1.38875	川 り	-0.6561695
-1.5211197	元 り	-0.2796354
-1.9183326	久 り	-0.27613747
-1.6043556	保 り	-0.2982246
-1.4527446	岡 り	-0.53568447
-1.5086955	渡 り	-0.24387686
-1.4955915	部 り	-0.36489815
-1.6020389	友 り	-0.2138478
-1.5122426	岩 り	-0.25436634
-1.7390904	手 り	-0.27613747
-1.4380059	塚 り	-0.57379186
-1.4687737	城 り	-0.24253613
-1.7033725	宅 り	-0.27613747
-1.4955946	沢 り	-0.63386977
-1.5773239	境 り	-0.27613747
-1.8382623	南 り	-0.27613747
-1.6887023	雲 り	-0.27613747
-1.6216416	知 り	-0.27613747
-2.0178862	花 り	-0.27613747
-1.8021758	士 り	-0.27613747
-1.5436444	吉 り	-0.2937164
-1.5026543	浦 り	-0.23878354
-1.4554157	石 り	-0.34181464
-1.736951	加 り	-0.27613747
-1.4744257	賀 り	-0.45509404
-1.6099466	代 り	-0.24387686
-1.6423094	斎 り	-0.27613747
-1.6191294	月 り	-0.24387686
-0.9653979	せ り	-1.0691594
-1.7345059	科 り	-0.27613747
-1.6821114	所 り	-0.27613747
-1.7135854	磯 り	-0.27613747
-1.117162	椎 り	-0.27613747
-1.7059972	名 り	-0.2501401
-1.773725	相 り	-0.27613747
-1.4292991	本 り	-0.6387166
-1.4129591	水 り	-0.2796354
-1.6859355	東 り	-0.24456176
-1.4865043	根 り	-0.2937164
-1.9017578	熊 り	-0.27613747
-1.6769563	合 り	-0.24387686
-1.5937239	津 り	-0.28017625
-1.9138129	玉 り	-0.27613747
-1.5153956	置 り	-0.23363474
-1.6626204	堀 り	-0.2553022
-1.5185153	鹿 り	-0.27613747
-1.7222446	竹 り	-0.2138478
-1.9645448	和 り	-0.27613747
-1.7878995	仲 り	-0.27613747
-2.4433935	ー り	-0.27613747
-1.4215928	坂 り	-0.37139985
-1.4139029	越 り	-0.32455355
-1.4761952	戸 り	-0.29101107
-2.1718478	乃 り	-0.27613747
-1.6676128	屋 り	-0.25970766
-1.7455922	柴 り	-0.23363474
-1.5576994	黒 り	-0.27613747
-1.6523846	柳 り	-0.22926402
-1.3740414	脇 り	-0.49776828
-1.5570011	見 り	-0.24204962
-1.3941822	西 り	-0.3713463
-1.6071221	北 り	-0.22221781
-1.6227033	毛 り	-0.27613747
-1.6314831	利 り	-0.24387686
-1.5870372	江 り	-0.34215772
-1.2211897	ぎ り	-0.24023263
-1.7875129	古 り	-0.27613747
-1.3553195	滝 り	-0.24387686
-1.7455922	風 り	-0.27613747
-1.5876132	辺 り	-0.23452686
-1.7347971	わ り	-0.54627776
-2.0517242	ら り	-0.421339
-1.4669436	関 り	-0.22860287
-1.7785112	門 り	-0.27613747
-1.6734487	浜 り	-0.27613747
-1.7642602	茂 り	-0.34215772
-1.6974716	駒 り	-0.24100894
-1.9285034	須 り	-0.27613747
-1.46274	飼 り	-0.27613747
-1.9308381	出 り	-0.27613747
-2.076435	香 り	-0.27613747
-1.6352394	池 り	-0.2501401
-1.4752252	下 り	-0.32776654
-1.6793981	榊 り	-0.27613747
-1.7115432	植 り	-0.27613747
-1.4708369	枝 り	-0.2512524
-1.7033725	呂 り	-0.27613747
-2.0650897	ほ り	-1.2206975
-1.5503739	佐 り	-0.23542082
-2.0412133	げ り	-0.27613747
-1.3979276	矢 り	-0.24023263
-1.5334687	形 り	-0.2501401
-1.7781771	広 り	-0.27613747
-1.7581036	奥 り	-0.27613747
-1.7210075	斐 り	-0.27613747
-1.2731403	芝 り	-0.23363474
-1.6260744	葉 り	-0.27613747
-1.6917531	角 り	-0.2138478
-1.5809984	ぬ り	-0.27613747
-1.4747975	馬 り	-0.23824273
-1.6798873	場 り	-0.33043367
-1.247403	前 り	-0.24387686
-1.6424444	日 り	-0.2501401
-1.7790349	向 り	-0.2138478
-2.0165935	が り	-0.34215772
-1.4941208	嶺 り	-0.27613747
-1.7729733	栗 り	-0.27613747
-1.4466591	瓶 り	-0.27613747
-1.4473859	泉 り	-0.36972898
-1.723362	郷 り	-0.27613747
-1.7529806	桂 り	-0.24524774
-1.6135554	条 り	-0.24387686
-1.7985357	成 り	-0.27613747
-1.4778233	だ り	-0.34215772
-1.443081	桐 り	-0.2501401
-1.5899814	垣 り	-0.23422924
-1.7952508	浅 り	-0.27613747
-1.7057523	嵐 り	-0.24387686
-1.3100454	を り	-0.23542082
-1.3900126	間 り	-0.2790954
-1.8177593	梨 り	-0.27613747
-1.6962881	丸 り	-0.24387686
-1.6560483	鳥 り	-0.24387686
-1.4213619	沼 り	-0.3656331
-1.4968611	尻 り	-0.27613747
-1.6855316	持 り	-0.23363474
-1.5115703	星 り	-0.2501401
-1.6364213	迫 り	-0.23363474
-1.6998165	ざ り	-0.2138478
-1.7887363	辻 り	-0.27613747
-1.8684809	織 り	-0.27613747
-1.8196499	智 り	-0.27613747
-1.8725921	華 り	-0.27613747
-1.7135854	曽 り	-0.27613747
-1.7093546	我 り	-0.2501401
-1.658965	伴 り	-0.2138478
-1.4380007	又 り	-0.27613747
-1.6917531	味 り	-0.27613747
-1.7411165	橘 り	-0.27613747
-1.7299094	麻 り	-0.27613747
-1.4700084	地 り	-0.24023263
-1.430554	杉 り	-0.33510906
-1.7390904	米 り	-0.27613747
-1.5273882	俣 り	-0.33043367
-1.658965	訪 り	-0.27613747
-1.6974716	乾 り	-0.27613747
-1.9243618	多 り	-0.27613747
-1.7331018	吹 り	-0.27613747
-1.8843418	切 り	-0.27613747
-1.7210075	沖 り	-0.22561143
-1.5339533	園 り	-0.27613747
-1.5527222	堂 り	-0.23363474
-1.6227033	坪 り	-0.27613747
-1.6252995	司 り	-0.27613747
-1.7872599	嘉 り	-0.27613747
-1.3562686	音 り	-0.2138478
-1.740135	堤 り	-0.27613747
-1.8331033	路 り	-0.27613747
-1.5255587	庭 り	-0.32683632
-1.7831141	深 り	-0.27613747
-1.9508296	寺 り	-0.27613747
-1.7115432	室 り	-0.23363474
-1.7033725	添 り	-0.27613747
-1.9025809	達 り	-0.27613747
-1.401638	ば り	-0.421339
-1.652358	良 り	-0.27613747
-1.6477066	念 り	-0.27613747
-1.4830279	幡 り	-0.23363474
-1.6695056	股 り	-0.27613747
-1.3201488	柚 り	-0.27613747
-1.5494919	咲 り	-0.24387686
-1.7255796	家 り	-0.2512524
-1.5194119	樫 り	-0.24387686
-1.7741129	巳 り	-0.27613747
-1.3201488	宗 り	-0.27613747
-1.4455272	巻 り	-0.27613747
-1.3655711	住 り	-0.27613747
-1.897059	希 り	-0.27613747
-1.8270882	道 り	-0.27613747
-1.7996724	方 り	-0.27613747
-1.6705207	歩 り	-0.27613747
-1.9202708	里 り	-0.24387686
-1.7581036	牧 り	-0.27613747
-0.9800415	羅 り	-0.27613747
-1.7210075	肥 り	-0.27613747
-1.7624364	好 り	-0.22221781
-1.6227033	鍋 り	-0.27613747
-1.6522695	雅 り	-0.27613747
-1.9075451	波 り	-0.27613747
-1.6793981	納 り	-0.27613747
-1.7455922	槻 り	-0.27613747
-1.803396	峰 り	-0.5364508
-1.7542973	正 り	-0.27613747
-1.6007972	築 り	-0.27613747
-1.6227033	詰 り	-0.27613747
-1.6793981	畠 り	-0.27613747
-1.7164477	輪 り	-0.27613747
-1.4860284	貝 り	-0.25436634
-1.7411165	伯 り	-0.27613747
-1.6793981	狩 り	-0.23363474
-1.6477066	暮 り	-0.24387686
-1.6917531	楽 り	-0.24387686
-1.7122471	妻 り	-0.27613747
-1.7794217	空 り	-0.27613747
-1.6477066	佃 り	-0.27613747
-1.6917531	淵 り	-0.27613747
-1.4132189	紅 り	-0.27613747
-1.7447171	桃 り	-0.27613747
-1.6793981	倍 り	-0.27613747
-1.4947337	妃 り	-0.2138478
-1.8520652	紀 り	-0.5364508
-1.4045076	瞳 り	-0.27613747
-1.6007972	涼 り	-0.27613747
-1.6757628	像 り	-0.27613747
-1.4045076	渚 り	-0.23542082
-1.6423094	丘 り	-0.27613747
-1.5560336	央 り	-0.27613747
-1.658965	秦 り	-0.27613747
-1.6227838	純 り	-0.27613747
-1.2003071	浪 り	-0.23542082
-0.5592257	開 り	-0.2138478
-1.0064389	響 り	-0.27613747
-1.4664006	果 り	-0.27613747
-1.0064389	黛 り	-0.27613747
-0.5852157	ぷ り	-0.22666262
-1.117162	盤 り	-0.2138478
-1.3745335	詩 り	-0.27613747
-1.3745335	祥 り	-0.27613747
-0.5592257	糟 り	-0.27613747
-0.5592257	姿 り	-0.2138478
-0.8450442	綱 り	-0.2138478
-3.8557918	<s> さ	-0.5538075
-1.8468084	長 さ	-0.23363474
-1.4219997	内 さ	-0.5218545
-0.92318344	り さ	-2.0608995
-2.9743462	さ さ	-0.4365273
-1.4417042	海 さ	-0.2907367
-1.5823665	こ さ	-1.173273
-1.2033758	雪 さ	-0.27613747
-2.542808	か さ	-1.1303635
-1.8783772	ん さ	-0.23363474
-1.6755646	高 さ	-0.25436634
-1.401885	野 さ	-0.99011856
